{"learner":{"attributes":{"scikit_learn":"{\"_estimator_type\": \"classifier\"}"},"feature_names":[],"feature_types":[],"gradient_booster":{"model":{"cats":{"enc":[],"feature_segments":[],"sorted_idx":[]},"gbtree_model_param":{"num_parallel_tree":"1","num_trees":"200"},"iteration_indptr":[0,1,2,3,4,5,6,7,8,9,10,11,12,13,14,15,16,17,18,19,20,21,22,23,24,25,26,27,28,29,30,31,32,33,34,35,36,37,38,39,40,41,42,43,44,45,46,47,48,49,50,51,52,53,54,55,56,57,58,59,60,61,62,63,64,65,66,67,68,69,70,71,72,73,74,75,76,77,78,79,80,81,82,83,84,85,86,87,88,89,90,91,92,93,94,95,96,97,98,99,100,101,102,103,104,105,106,107,108,109,110,111,112,113,114,115,116,117,118,119,120,121,122,123,124,125,126,127,128,129,130,131,132,133,134,135,136,137,138,139,140,141,142,143,144,145,146,147,148,149,150,151,152,153,154,155,156,157,158,159,160,161,162,163,164,165,166,167,168,169,170,171,172,173,174,175,176,177,178,179,180,181,182,183,184,185,186,187,188,189,190,191,192,193,194,195,196,197,198,199,200],"tree_info":[0,0,0,0,0,0,0,0,0,0,0,0,0,0,0,0,0,0,0,0,0,0,0,0,0,0,0,0,0,0,0,0,0,0,0,0,0,0,0,0,0,0,0,0,0,0,0,0,0,0,0,0,0,0,0,0,0,0,0,0,0,0,0,0,0,0,0,0,0,0,0,0,0,0,0,0,0,0,0,0,0,0,0,0,0,0,0,0,0,0,0,0,0,0,0,0,0,0,0,0,0,0,0,0,0,0,0,0,0,0,0,0,0,0,0,0,0,0,0,0,0,0,0,0,0,0,0,0,0,0,0,0,0,0,0,0,0,0,0,0,0,0,0,0,0,0,0,0,0,0,0,0,0,0,0,0,0,0,0,0,0,0,0,0,0,0,0,0,0,0,0,0,0,0,0,0,0,0,0,0,0,0,0,0,0,0,0,0,0,0,0,0,0,0,0,0,0,0,0,0],"trees":[{"base_weights":[-6.0416874E-4,-1.6004403E-1,1.7075472E0,-3.908884E-1,1.1028836E0,1.3056235E0,1.8295895E0,-9.0483165E-1,1.0081466E-1,6.2435675E-1,1.43898E0,1.3465346E0,-3.3333335E-2,1.5307263E0,5.612903E-2,-1.2452489E0,-4.178237E-1,-4.0882105E-1,5.17696E-1,1.554054E-1,1.100346E0,1.1666666E0,1.6091725E0,7.9310346E-1,1.5479453E0,1.0447761E0,1.7586207E0,-4.2248927E-2,-1.8794402E-2,-2.5370872E-2,6.411483E-3,-2.5510535E-2,2.2721894E-3,-2.5752722E-3,2.5726682E-2,-6.774193E-3,2.3571428E-2,1.8792452E-2,4.4479493E-2,2.3579765E-2,4.2075947E-2,2.7887324E-2,4.9615383E-2,-8.571429E-3,2.969697E-2,4.7323942E-2,1E-2,1.8139534E-2,4.7142856E-2,2E-2,5.5428572E-2],"categories":[],"categories_nodes":[],"categories_segments":[],"categories_sizes":[],"default_left":[0,0,0,0,0,0,0,0,0,0,0,0,0,0,0,0,0,0,0,0,0,0,0,0,0,0,0,0,0,0,0,0,0,0,0,0,0,0,0,0,0,0,0,0,0,0,0,0,0,0,0],"id":0,"left_children":[1,3,5,7,9,11,13,15,17,19,21,23,-1,25,-1,27,29,31,33,35,37,39,41,43,45,47,49,-1,-1,-1,-1,-1,-1,-1,-1,-1,-1,-1,-1,-1,-1,-1,-1,-1,-1,-1,-1,-1,-1,-1,-1],"loss_changes":[1.3526144E3,1.3247502E3,1.840918E1,9.708038E2,1.1204523E2,1.1605743E1,1.1273193E0,3.1086707E2,4.1747845E2,6.489641E1,1.7205444E1,1.0030472E1,0E0,3.1184845E0,0E0,1.10600586E2,2.0939717E2,1.8924806E2,2.2175552E2,3.573904E1,2.5252563E1,1.3443237E1,6.0753784E0,6.4397182E0,2.0915833E0,2.9323654E0,1.5865402E0,0E0,0E0,0E0,0E0,0E0,0E0,0E0,0E0,0E0,0E0,0E0,0E0,0E0,0E0,0E0,0E0,0E0,0E0,0E0,0E0,0E0,0E0,0E0,0E0],"parents":[2147483647,0,0,1,1,2,2,3,3,4,4,5,5,6,6,7,7,8,8,9,9,10,10,11,11,13,13,15,15,16,16,17,17,18,18,19,19,20,20,21,21,22,22,23,23,24,24,25,25,26,26],"right_children":[2,4,6,8,10,12,14,16,18,20,22,24,-1,26,-1,28,30,32,34,36,38,40,42,44,46,48,50,-1,-1,-1,-1,-1,-1,-1,-1,-1,-1,-1,-1,-1,-1,-1,-1,-1,-1,-1,-1,-1,-1,-1,-1],"split_conditions":[-2.9956025E-1,-3.8980678E-1,-8.919987E-1,-3.8752884E-2,-3.0814064E-1,1.7022156E0,-1.214067E0,3.3410048E-1,-1.3034976E-1,2.4466997E-2,-3.1970137E-1,-6.719152E-1,-3.3333335E-2,1.3756105E-1,5.612903E-2,9.7850204E-1,3.451886E-1,5.251152E-2,-4.5723537E-1,3.732715E-1,-1.8326634E-1,-3.044307E-1,-1.4849963E0,-1.2020644E0,1.5737013E0,4.121521E-1,-1.4539294E0,-4.2248927E-2,-1.8794402E-2,-2.5370872E-2,6.411483E-3,-2.5510535E-2,2.2721894E-3,-2.5752722E-3,2.5726682E-2,-6.774193E-3,2.3571428E-2,1.8792452E-2,4.4479493E-2,2.3579765E-2,4.2075947E-2,2.7887324E-2,4.9615383E-2,-8.571429E-3,2.969697E-2,4.7323942E-2,1E-2,1.8139534E-2,4.7142856E-2,2E-2,5.5428572E-2],"split_indices":[6,4,7,7,7,0,8,8,8,8,1,1,0,7,0,1,1,1,1,1,1,8,8,8,2,1,5,0,0,0,0,0,0,0,0,0,0,0,0,0,0,0,0,0,0,0,0,0,0,0,0],"split_type":[0,0,0,0,0,0,0,0,0,0,0,0,0,0,0,0,0,0,0,0,0,0,0,0,0,0,0,0,0,0,0,0,0,0,0,0,0,0,0,0,0,0,0,0,0,0,0,0,0,0,0],"sum_hessian":[4.9645E3,4.5415E3,4.23E2,3.84025E3,7.0125E2,1.0125E2,3.2175E2,1.87725E3,1.963E3,2.905E2,4.1075E2,1E2,1.25E0,4.375E1,2.78E2,1.104E3,7.7325E2,8.8325E2,1.07975E3,1.47E2,1.435E2,1.61E2,2.4975E2,2.8E1,7.2E1,1.575E1,2.8E1,8.7275E2,2.3125E2,4.6075E2,3.125E2,4.6175E2,4.215E2,3.8925E2,6.905E2,9.2E1,5.5E1,6.525E1,7.825E1,6.325E1,9.775E1,1.675E1,2.33E2,4.25E0,2.375E1,7E1,2E0,9.75E0,6E0,2.75E0,2.525E1],"tree_param":{"num_deleted":"0","num_feature":"9","num_nodes":"51","size_leaf_vector":"1"}},{"base_weights":[-3.2236543E-3,-1.5905333E-1,1.6710473E0,-3.8364008E-1,1.0805908E0,1.3013145E0,1.7744917E0,-8.7454265E-1,8.755772E-2,6.762219E-1,1.4445121E0,1.3569887E0,-5.6954926E-1,5.4590833E-1,1.7822112E0,-1.2656097E0,-4.6002263E-1,-3.5298946E-1,5.56801E-1,2.075922E-1,1.1608486E0,9.655657E-1,1.5459193E0,9.0162575E-1,1.5431582E0,6.685985E-3,-3.3262692E-2,1.9575816E-2,5.8968714E-3,1.3062863E0,5.4304995E-2,-4.2929627E-2,-1.9048942E-2,-2.5414586E-2,3.8732009E-3,-2.3654528E-2,2.3605092E-3,-1.0768336E-3,2.5270477E-2,-1.7209906E-2,1.51856765E-2,5.4353485E-3,4.070721E-2,1.17477365E-2,3.9267205E-2,4.0863212E-2,5.0807096E-2,-5.2442313E-3,3.301281E-2,1.0963567E-2,4.766827E-2,4.0934872E-2,5.8601173E-3],"categories":[],"categories_nodes":[],"categories_segments":[],"categories_sizes":[],"default_left":[0,0,0,0,0,0,0,0,0,0,0,0,0,0,0,0,0,0,0,0,0,0,0,0,0,0,0,0,0,0,0,0,0,0,0,0,0,0,0,0,0,0,0,0,0,0,0,0,0,0,0,0,0],"id":1,"left_children":[1,3,5,7,9,11,13,15,17,19,21,23,25,27,29,31,33,35,37,39,41,43,45,47,49,-1,-1,-1,-1,51,-1,-1,-1,-1,-1,-1,-1,-1,-1,-1,-1,-1,-1,-1,-1,-1,-1,-1,-1,-1,-1,-1,-1],"loss_changes":[1.3028871E3,1.2723384E3,1.3953857E1,8.949236E2,1.0218091E2,1.0845932E1,2.1519775E0,3.06568E2,4.0843658E2,7.5597275E1,1.6383972E1,6.59523E0,1.7421899E0,2.0641088E-3,1.986084E0,1.0071484E2,2.1024593E2,1.9165549E2,1.619364E2,4.0177406E1,3.1243225E1,1.268676E1,5.892029E0,6.5575905E0,2.9492035E0,0E0,0E0,0E0,0E0,1.1389999E0,0E0,0E0,0E0,0E0,0E0,0E0,0E0,0E0,0E0,0E0,0E0,0E0,0E0,0E0,0E0,0E0,0E0,0E0,0E0,0E0,0E0,0E0,0E0],"parents":[2147483647,0,0,1,1,2,2,3,3,4,4,5,5,6,6,7,7,8,8,9,9,10,10,11,11,12,12,13,13,14,14,15,15,16,16,17,17,18,18,19,19,20,20,21,21,22,22,23,23,24,24,29,29],"right_children":[2,4,6,8,10,12,14,16,18,20,22,24,26,28,30,32,34,36,38,40,42,44,46,48,50,-1,-1,-1,-1,52,-1,-1,-1,-1,-1,-1,-1,-1,-1,-1,-1,-1,-1,-1,-1,-1,-1,-1,-1,-1,-1,-1,-1],"split_conditions":[-2.9956025E-1,-3.8980678E-1,-9.3071026E-1,-3.8752884E-2,-1.0322589E-1,1.6411141E0,-1.7172214E0,6.3171186E-2,1.0187537E-1,2.4466997E-2,-1.1160798E0,-6.719152E-1,-1.2188197E0,6.409126E-2,-1.51151E0,9.8990595E-1,3.589339E-1,-2.684614E-2,-5.863639E-1,-7.012937E-1,-1.4507186E0,-2.472189E-1,-1.489044E-1,-1.2020644E0,-1.5255047E0,6.685985E-3,-3.3262692E-2,1.9575816E-2,5.8968714E-3,-1.5225159E0,5.4304995E-2,-4.2929627E-2,-1.9048942E-2,-2.5414586E-2,3.8732009E-3,-2.3654528E-2,2.3605092E-3,-1.0768336E-3,2.5270477E-2,-1.7209906E-2,1.51856765E-2,5.4353485E-3,4.070721E-2,1.17477365E-2,3.9267205E-2,4.0863212E-2,5.0807096E-2,-5.2442313E-3,3.301281E-2,1.0963567E-2,4.766827E-2,4.0934872E-2,5.8601173E-3],"split_indices":[6,4,7,7,7,0,8,8,8,8,1,1,5,1,1,1,1,1,1,1,7,8,3,8,5,0,0,0,0,1,0,0,0,0,0,0,0,0,0,0,0,0,0,0,0,0,0,0,0,0,0,0,0],"split_type":[0,0,0,0,0,0,0,0,0,0,0,0,0,0,0,0,0,0,0,0,0,0,0,0,0,0,0,0,0,0,0,0,0,0,0,0,0,0,0,0,0,0,0,0,0,0,0,0,0,0,0,0,0],"sum_hessian":[4.9917783E3,4.567566E3,4.242127E2,3.8675679E3,6.9999805E2,9.570865E1,3.2850406E2,1.8937589E3,1.973809E3,3.3292667E2,3.670714E2,9.320954E1,2.4991086E0,2.4989905E0,3.2600507E2,9.733893E2,9.2036957E2,1.01816064E3,9.556483E2,1.69983E2,1.6294366E2,6.597816E1,3.0109326E2,2.8744572E1,6.4464966E1,1.2495118E0,1.2495967E0,1.2497258E0,1.2492648E0,2.0734747E1,3.0527032E2,7.701572E2,2.0323206E2,5.551379E2,3.652317E2,5.0642526E2,5.1173535E2,3.1099948E2,6.446488E2,4.6748367E1,1.2323463E2,2.7492496E1,1.3545117E2,2.5496077E1,4.0482082E1,1.3867729E2,1.6241597E2,4.4999175E0,2.4244656E1,2.7484608E0,6.1716507E1,1.9485556E1,1.2491922E0],"tree_param":{"num_deleted":"0","num_feature":"9","num_nodes":"53","size_leaf_vector":"1"}},{"base_weights":[8.796862E-3,-1.4148153E-1,1.6155758E0,-3.5610253E-1,1.0398176E0,1.2215859E0,1.7326326E0,-8.231985E-1,1.1914114E-1,5.672389E-1,1.344254E0,6.9606483E-1,1.4263638E0,1.2815858E-2,1.7403902E0,-1.2052456E0,-3.9309835E-1,-3.6264774E-1,5.125549E-1,1.4220922E-1,1.0170336E0,1.1059366E0,1.5543313E0,-4.3371522E-1,8.6024714E-1,1.4691534E0,-5.3893933E-3,1.5237018E0,5.349275E-2,-4.4319753E-2,-2.6414279E-2,-2.3345346E-2,4.8085432E-3,-2.3506122E-2,2.885051E-3,-1.035797E-3,2.4449417E-2,-1.9551245E-2,1.3386511E-2,1.357537E-2,3.914304E-2,2.7531724E-2,4.831915E-2,2.3197977E-2,4.8144016E-2,-3.575235E-2,1.0276635E-2,-4.394452E-3,3.1707294E-2,4.6193253E-2,2.5160458E-2,4.7901522E-2,1.9112034E-2],"categories":[],"categories_nodes":[],"categories_segments":[],"categories_sizes":[],"default_left":[0,0,0,0,0,0,0,0,0,0,0,0,0,0,0,0,0,0,0,0,0,0,0,0,0,0,0,0,0,0,0,0,0,0,0,0,0,0,0,0,0,0,0,0,0,0,0,0,0,0,0,0,0],"id":2,"left_children":[1,3,5,7,9,11,13,15,17,19,21,23,25,-1,27,29,31,33,35,37,39,41,43,45,47,49,-1,51,-1,-1,-1,-1,-1,-1,-1,-1,-1,-1,-1,-1,-1,-1,-1,-1,-1,-1,-1,-1,-1,-1,-1,-1,-1],"loss_changes":[1.2009347E3,1.1534893E3,1.7501709E1,8.546685E2,9.988031E1,9.857437E0,2.5533447E0,3.185691E2,3.620363E2,5.258387E1,1.9545105E1,5.9794836E0,5.1843567E0,0E0,2.746582E-1,8.95155E1,1.9507613E2,1.6590683E2,1.7397357E2,3.479813E1,2.1149399E1,1.7753357E1,7.560364E0,3.056099E0,5.44598E0,1.8187408E0,0E0,2.8734283E0,0E0,0E0,0E0,0E0,0E0,0E0,0E0,0E0,0E0,0E0,0E0,0E0,0E0,0E0,0E0,0E0,0E0,0E0,0E0,0E0,0E0,0E0,0E0,0E0,0E0],"parents":[2147483647,0,0,1,1,2,2,3,3,4,4,5,5,6,6,7,7,8,8,9,9,10,10,11,11,12,12,14,14,15,15,16,16,17,17,18,18,19,19,20,20,21,21,22,22,23,23,24,24,25,25,27,27],"right_children":[2,4,6,8,10,12,14,16,18,20,22,24,26,-1,28,30,32,34,36,38,40,42,44,46,48,50,-1,52,-1,-1,-1,-1,-1,-1,-1,-1,-1,-1,-1,-1,-1,-1,-1,-1,-1,-1,-1,-1,-1,-1,-1,-1,-1],"split_conditions":[-2.9956025E-1,-3.8980678E-1,-8.919987E-1,1.4570654E-2,-3.8556364E-1,-6.719152E-1,-1.7172214E0,1.4057957E-1,-1.3034976E-1,2.4466997E-2,-8.60613E-2,-1.2527711E0,1.6411141E0,1.2815858E-2,-1.0592502E0,1.3362986E-1,3.15109E-1,5.251152E-2,-4.5723537E-1,-7.012937E-1,-5.735741E-1,1.202993E0,-1.4849963E0,-2.2003849E-1,-1.2453914E0,1.4011961E0,-5.3893933E-3,1.518911E0,5.349275E-2,-4.4319753E-2,-2.6414279E-2,-2.3345346E-2,4.8085432E-3,-2.3506122E-2,2.885051E-3,-1.035797E-3,2.4449417E-2,-1.9551245E-2,1.3386511E-2,1.357537E-2,3.914304E-2,2.7531724E-2,4.831915E-2,2.3197977E-2,4.8144016E-2,-3.575235E-2,1.0276635E-2,-4.394452E-3,3.1707294E-2,4.6193253E-2,2.5160458E-2,4.7901522E-2,1.9112034E-2],"split_indices":[6,4,7,7,7,1,8,8,8,8,1,8,0,0,8,1,1,1,1,1,1,7,8,3,5,1,0,0,0,0,0,0,0,0,0,0,0,0,0,0,0,0,0,0,0,0,0,0,0,0,0,0,0],"split_type":[0,0,0,0,0,0,0,0,0,0,0,0,0,0,0,0,0,0,0,0,0,0,0,0,0,0,0,0,0,0,0,0,0,0,0,0,0,0,0,0,0,0,0,0,0,0,0,0,0,0,0,0,0],"sum_hessian":[4.971606E3,4.547226E3,4.243798E2,3.8486868E3,6.985393E2,9.982497E1,3.2455484E2,1.9406124E3,1.9080743E3,2.7481125E2,4.2372803E2,2.922474E1,7.060023E1,2.2484655E0,3.2230637E2,1.0267628E3,9.138496E2,8.577367E2,1.0503376E3,1.4197209E2,1.3283917E2,2.014557E2,2.2227234E2,3.4998329E0,2.5724907E1,6.885101E1,1.7492131E0,5.90979E1,2.6320847E2,5.567719E2,4.6999094E2,5.386298E2,3.752198E2,4.469889E2,4.107478E2,3.7423703E2,6.761006E2,3.8994392E1,1.029777E2,4.5717094E1,8.712207E1,1.4878824E2,5.266747E1,1.4481252E1,2.0779109E2,1.4999284E0,1.9999045E0,4.2457585E0,2.1479147E1,6.0618618E1,8.232397E0,5.3861446E1,5.236454E0],"tree_param":{"num_deleted":"0","num_feature":"9","num_nodes":"53","size_leaf_vector":"1"}},{"base_weights":[3.3739622E-4,-1.4693576E-1,1.5798464E0,-3.5368443E-1,9.950823E-1,1.2215885E0,1.6889682E0,-8.7677085E-1,5.766763E-2,5.0459707E-1,1.2933284E0,1.2588905E0,-2.3292745E-2,1.255292E-2,1.6965802E0,-1.1928896E0,-4.105454E-1,-4.2053548E-1,4.4867587E-1,4.1037593E-2,9.7142947E-1,1.0091397E0,1.4614637E0,8.0492216E-1,1.4476092E0,1.1354868E0,5.139665E-2,-4.03083E-2,-1.8219318E-2,-2.3796523E-2,3.75649E-3,-2.4305934E-2,2.6435958E-4,1.5147413E-3,2.648893E-2,-1.096257E-2,2.0584956E-2,1.4017156E-2,3.9230686E-2,2.3235777E-2,4.2595237E-2,2.1997582E-2,4.522097E-2,1.1971972E-2,4.480976E-2,9.748581E-3,4.465336E-2,3.900584E-2,2.808096E-3],"categories":[],"categories_nodes":[],"categories_segments":[],"categories_sizes":[],"default_left":[0,0,0,0,0,0,0,0,0,0,0,0,0,0,0,0,0,0,0,0,0,0,0,0,0,0,0,0,0,0,0,0,0,0,0,0,0,0,0,0,0,0,0,0,0,0,0,0,0],"id":3,"left_children":[1,3,5,7,9,11,13,15,17,19,21,23,-1,-1,25,27,29,31,33,35,37,39,41,43,45,47,-1,-1,-1,-1,-1,-1,-1,-1,-1,-1,-1,-1,-1,-1,-1,-1,-1,-1,-1,-1,-1,-1,-1],"loss_changes":[1.1566271E3,1.0742131E3,1.4515137E1,8.2882996E2,1.0137134E2,8.6259E0,2.4084473E0,2.4941614E2,4.0351993E2,5.7385765E1,1.92182E1,7.498291E0,0E0,0E0,1.0444946E0,8.832153E1,1.408812E2,1.6243192E2,2.0525603E2,3.543809E1,2.1797058E1,1.4722855E1,7.915222E0,8.333841E0,2.7335968E0,1.9699335E0,0E0,0E0,0E0,0E0,0E0,0E0,0E0,0E0,0E0,0E0,0E0,0E0,0E0,0E0,0E0,0E0,0E0,0E0,0E0,0E0,0E0,0E0,0E0],"parents":[2147483647,0,0,1,1,2,2,3,3,4,4,5,5,6,6,7,7,8,8,9,9,10,10,11,11,14,14,15,15,16,16,17,17,18,18,19,19,20,20,21,21,22,22,23,23,24,24,25,25],"right_children":[2,4,6,8,10,12,14,16,18,20,22,24,-1,-1,26,28,30,32,34,36,38,40,42,44,46,48,-1,-1,-1,-1,-1,-1,-1,-1,-1,-1,-1,-1,-1,-1,-1,-1,-1,-1,-1,-1,-1,-1,-1],"split_conditions":[-2.9956025E-1,-3.8980678E-1,-8.919987E-1,-2.1333553E-1,-4.3888718E-1,1.7022156E0,-1.7172214E0,3.7280467E-1,-1.3034976E-1,2.4466997E-2,-3.6257488E-1,-6.719152E-1,-2.3292745E-2,1.255292E-2,-1.6167873E0,9.8990595E-1,2.6434326E-1,5.251152E-2,1.0420043E-1,3.732715E-1,-3.7188306E-1,4.8003876E-1,-1.5911498E0,4.6885344E-1,-1.5255047E0,1.2745049E0,5.139665E-2,-4.03083E-2,-1.8219318E-2,-2.3796523E-2,3.75649E-3,-2.4305934E-2,2.6435958E-4,1.5147413E-3,2.648893E-2,-1.096257E-2,2.0584956E-2,1.4017156E-2,3.9230686E-2,2.3235777E-2,4.2595237E-2,2.1997582E-2,4.522097E-2,1.1971972E-2,4.480976E-2,9.748581E-3,4.465336E-2,3.900584E-2,2.808096E-3],"split_indices":[6,4,7,7,7,0,8,8,8,8,8,1,0,0,1,1,1,1,1,1,1,1,1,3,5,0,0,0,0,0,0,0,0,0,0,0,0,0,0,0,0,0,0,0,0,0,0,0,0],"split_type":[0,0,0,0,0,0,0,0,0,0,0,0,0,0,0,0,0,0,0,0,0,0,0,0,0,0,0,0,0,0,0,0,0,0,0,0,0,0,0,0,0,0,0,0,0,0,0,0,0],"sum_hessian":[4.970192E3,4.547126E3,4.2306628E2,3.850694E3,6.964317E2,1.0162291E2,3.2144336E2,1.6946279E3,2.1560662E3,2.643624E2,4.320693E2,1.0012358E2,1.4993318E0,2.2476547E0,3.191957E2,1.00895746E3,6.856705E2,9.698563E2,1.1862098E3,1.3319205E2,1.3117035E2,1.6320901E2,2.688603E2,3.0946375E1,6.917721E1,1.1188572E1,3.0800714E2,8.013944E2,2.0756305E2,3.9970062E2,2.8596982E2,5.0796036E2,4.61896E2,6.1941E2,5.6679987E2,8.197686E1,5.121518E1,5.343661E1,7.7733734E1,1.0570867E2,5.7500336E1,1.694895E1,2.5191135E2,2.0465782E1,1.0480593E1,2.7423623E0,6.6434845E1,9.447174E0,1.7413977E0],"tree_param":{"num_deleted":"0","num_feature":"9","num_nodes":"49","size_leaf_vector":"1"}},{"base_weights":[1.0423161E-3,-1.3940868E-1,1.5389997E0,-3.4580934E-1,9.918062E-1,1.2155117E0,1.6348724E0,-7.5244224E-1,1.1993461E-1,5.40282E-1,1.3025993E0,6.6626906E-1,1.4478226E0,1.3430148E0,1.6768514E0,-1.1194434E0,-3.6486542E-1,-2.0103554E-1,6.638247E-1,5.8357354E-2,9.847629E-1,1.0705434E0,1.5031387E0,4.949794E-2,1.0890737E0,1.4802095E0,2.8986105E-6,8.469599E-1,1.5856792E0,1.5442545E0,5.2756816E-2,-4.1531555E-2,-2.345767E-2,-2.2079675E-2,4.8125577E-3,-1.8023323E-2,7.1337186E-3,4.6507274E-3,2.8118731E-2,-1.8090991E-2,1.0678824E-2,4.762634E-3,3.5204116E-2,3.6486667E-2,1.5044338E-2,2.839472E-2,4.6087354E-2,-6.7438306E-3,3.0167583E-2,1.481375E-2,4.006418E-2,4.543432E-2,7.2159735E-3,3.4235157E-2,-8.3887385E-4,1.633484E-2,5.019726E-2,1.8827057E-2,4.6712577E-2],"categories":[],"categories_nodes":[],"categories_segments":[],"categories_sizes":[],"default_left":[0,0,0,0,0,0,0,0,0,0,0,0,0,0,0,0,0,0,0,0,0,0,0,0,0,0,0,0,0,0,0,0,0,0,0,0,0,0,0,0,0,0,0,0,0,0,0,0,0,0,0,0,0,0,0,0,0,0,0],"id":4,"left_children":[1,3,5,7,9,11,13,15,17,19,21,23,25,27,29,31,33,35,37,39,41,43,45,47,49,51,-1,53,55,57,-1,-1,-1,-1,-1,-1,-1,-1,-1,-1,-1,-1,-1,-1,-1,-1,-1,-1,-1,-1,-1,-1,-1,-1,-1,-1,-1,-1,-1],"loss_changes":[1.0696537E3,1.0597858E3,1.0864197E1,7.2698035E2,9.758722E1,1.1620453E1,1.6288452E0,2.9107678E2,3.1259933E2,6.147724E1,1.7664124E1,8.074519E0,3.2099E0,4.056175E0,2.409668E-1,9.2997314E1,1.9470486E2,1.977307E2,9.23136E1,2.7553013E1,2.3097672E1,1.5594406E1,2.5945435E0,3.8253734E0,2.0460854E0,2.480423E0,0E0,4.377165E0,1.7303467E0,3.4320068E-1,0E0,0E0,0E0,0E0,0E0,0E0,0E0,0E0,0E0,0E0,0E0,0E0,0E0,0E0,0E0,0E0,0E0,0E0,0E0,0E0,0E0,0E0,0E0,0E0,0E0,0E0,0E0,0E0,0E0],"parents":[2147483647,0,0,1,1,2,2,3,3,4,4,5,5,6,6,7,7,8,8,9,9,10,10,11,11,12,12,13,13,14,14,15,15,16,16,17,17,18,18,19,19,20,20,21,21,22,22,23,23,24,24,25,25,27,27,28,28,29,29],"right_children":[2,4,6,8,10,12,14,16,18,20,22,24,26,28,30,32,34,36,38,40,42,44,46,48,50,52,-1,54,56,58,-1,-1,-1,-1,-1,-1,-1,-1,-1,-1,-1,-1,-1,-1,-1,-1,-1,-1,-1,-1,-1,-1,-1,-1,-1,-1,-1,-1,-1],"split_conditions":[-2.9956025E-1,-3.8980678E-1,-9.3071026E-1,1.0792147E-1,-3.3272484E-1,-6.719152E-1,-1.214067E0,6.3171186E-2,4.8891723E-1,-9.164556E-2,-8.60613E-2,-3.044307E-1,1.6411141E0,1.3756105E-1,-1.5278652E-1,1.9892062E-1,3.15109E-1,6.409126E-2,-4.7151047E-1,-6.179242E-1,-1.4507186E0,1.0300988E0,-1.4849963E0,9.7796124E-1,-9.446293E-1,1.5737013E0,2.8986105E-6,1.0300988E0,-1.4539294E0,-1.7065327E0,5.2756816E-2,-4.1531555E-2,-2.345767E-2,-2.2079675E-2,4.8125577E-3,-1.8023323E-2,7.1337186E-3,4.6507274E-3,2.8118731E-2,-1.8090991E-2,1.0678824E-2,4.762634E-3,3.5204116E-2,3.6486667E-2,1.5044338E-2,2.839472E-2,4.6087354E-2,-6.7438306E-3,3.0167583E-2,1.481375E-2,4.006418E-2,4.543432E-2,7.2159735E-3,3.4235157E-2,-8.3887385E-4,1.633484E-2,5.019726E-2,1.8827057E-2,4.6712577E-2],"split_indices":[6,4,7,7,7,1,8,8,8,8,1,8,0,7,1,1,1,1,1,1,7,0,8,3,5,2,0,0,5,2,0,0,0,0,0,0,0,0,0,0,0,0,0,0,0,0,0,0,0,0,0,0,0,0,0,0,0,0,0],"split_type":[0,0,0,0,0,0,0,0,0,0,0,0,0,0,0,0,0,0,0,0,0,0,0,0,0,0,0,0,0,0,0,0,0,0,0,0,0,0,0,0,0,0,0,0,0,0,0,0,0,0,0,0,0,0,0,0,0,0,0],"sum_hessian":[4.9499316E3,4.5365493E3,4.1338226E2,3.8371245E3,6.994246E2,9.763306E1,3.157492E2,2.0482327E3,1.7888918E3,2.8626846E2,4.1315616E2,3.017043E1,6.746263E1,4.385319E1,2.71896E2,1.0510719E3,9.9716077E2,1.1253881E3,6.635038E2,1.3789177E2,1.4837668E2,1.9446625E2,2.1868993E2,1.2724901E1,1.7445528E1,6.596451E1,1.4981176E0,1.5880497E1,2.7972696E1,1.1125374E2,1.6064227E2,5.8711E2,4.6396188E2,5.8408905E2,4.1307175E2,5.887272E2,5.3666095E2,2.3249672E2,4.3100708E2,4.2473305E1,9.5418465E1,2.793617E1,1.2044051E2,1.539248E2,4.0541447E1,1.3937413E1,2.0475252E2,1.0482466E1,2.242435E0,5.986533E0,1.1458995E1,6.397442E1,1.9900936E0,1.1656446E1,4.224051E0,2.7299519E0,2.5242744E1,2.2247634E0,1.0902898E2],"tree_param":{"num_deleted":"0","num_feature":"9","num_nodes":"59","size_leaf_vector":"1"}},{"base_weights":[-3.0868826E-3,-1.4124773E-1,1.4964958E0,-3.3887157E-1,9.4631964E-1,1.1333914E0,1.6071075E0,-6.512953E-1,2.4969079E-1,5.278992E-1,1.2430853E0,6.261151E-1,1.3419613E0,4.9572214E-1,1.6142951E0,-1.0045305E0,-2.537414E-1,-2.4404062E-1,6.1496574E-1,1.2188442E-1,9.559452E-1,1.0767117E0,1.515497E0,3.1423283E-1,1.2669413E0,1.3829187E0,-5.3051068E-3,1.8504592E-2,4.6109967E-3,1.3663137E0,1.645935E0,-3.7392784E-2,-1.9469094E-2,-1.8966991E-2,8.517262E-3,-2.152394E-2,4.889922E-3,8.339553E-3,3.1917345E-2,-4.510229E-3,2.4509141E-2,1.4791373E-3,3.517411E-2,2.2471406E-2,3.9463427E-2,2.6027467E-2,4.681608E-2,-3.6588053E-3,2.1709744E-2,4.1541275E-2,1.355591E-2,8.436247E-3,4.2720027E-2,1.1631868E-2,4.3559074E-2,3.4150485E-2,4.978575E-2],"categories":[],"categories_nodes":[],"categories_segments":[],"categories_sizes":[],"default_left":[0,0,0,0,0,0,0,0,0,0,0,0,0,0,0,0,0,0,0,0,0,0,0,0,0,0,0,0,0,0,0,0,0,0,0,0,0,0,0,0,0,0,0,0,0,0,0,0,0,0,0,0,0,0,0,0,0],"id":5,"left_children":[1,3,5,7,9,11,13,15,17,19,21,23,25,27,29,31,33,35,37,39,41,43,45,47,49,51,-1,-1,-1,53,55,-1,-1,-1,-1,-1,-1,-1,-1,-1,-1,-1,-1,-1,-1,-1,-1,-1,-1,-1,-1,-1,-1,-1,-1,-1,-1],"loss_changes":[1.0293763E3,9.780908E2,1.5012573E1,7.0818884E2,8.624042E1,9.873398E0,1.7470703E0,3.530056E2,2.4107654E2,5.0652077E1,1.6890686E1,5.8731804E0,4.653908E0,4.983467E-2,2.3358154E-1,1.13727905E2,2.4129651E2,1.09721756E2,1.1591E2,2.870735E1,2.7829346E1,1.9132446E1,3.0964355E0,4.095044E0,3.2865524E-1,2.7286224E0,0E0,0E0,0E0,2.9311981E0,1.2634277E-2,0E0,0E0,0E0,0E0,0E0,0E0,0E0,0E0,0E0,0E0,0E0,0E0,0E0,0E0,0E0,0E0,0E0,0E0,0E0,0E0,0E0,0E0,0E0,0E0,0E0,0E0],"parents":[2147483647,0,0,1,1,2,2,3,3,4,4,5,5,6,6,7,7,8,8,9,9,10,10,11,11,12,12,13,13,14,14,15,15,16,16,17,17,18,18,19,19,20,20,21,21,22,22,23,23,24,24,25,25,29,29,30,30],"right_children":[2,4,6,8,10,12,14,16,18,20,22,24,26,28,30,32,34,36,38,40,42,44,46,48,50,52,-1,-1,-1,54,56,-1,-1,-1,-1,-1,-1,-1,-1,-1,-1,-1,-1,-1,-1,-1,-1,-1,-1,-1,-1,-1,-1,-1,-1,-1,-1],"split_conditions":[-2.9956025E-1,-3.8980678E-1,-8.919987E-1,5.295237E-1,-3.0814064E-1,-6.719152E-1,-1.7172214E0,1.4057957E-1,-2.588435E-1,2.4466997E-2,4.526361E-1,5.624364E-1,1.6411141E0,9.844424E-3,-1.214067E0,3.15109E-1,3.3096436E-1,-1.3034976E-1,3.3410048E-1,8.3808297E-1,-1.4507186E0,-2.472189E-1,-1.4462922E0,1.5722278E-1,1.4871795E0,-1.5255047E0,-5.3051068E-3,1.8504592E-2,4.6109967E-3,-1.4539294E0,-1.6292416E0,-3.7392784E-2,-1.9469094E-2,-1.8966991E-2,8.517262E-3,-2.152394E-2,4.889922E-3,8.339553E-3,3.1917345E-2,-4.510229E-3,2.4509141E-2,1.4791373E-3,3.517411E-2,2.2471406E-2,3.9463427E-2,2.6027467E-2,4.681608E-2,-3.6588053E-3,2.1709744E-2,4.1541275E-2,1.355591E-2,8.436247E-3,4.2720027E-2,1.1631868E-2,4.3559074E-2,3.4150485E-2,4.978575E-2],"split_indices":[6,4,7,7,7,1,8,8,1,8,1,3,0,2,8,1,1,8,8,1,7,8,8,2,3,5,0,0,0,5,1,0,0,0,0,0,0,0,0,0,0,0,0,0,0,0,0,0,0,0,0,0,0,0,0,0,0],"split_type":[0,0,0,0,0,0,0,0,0,0,0,0,0,0,0,0,0,0,0,0,0,0,0,0,0,0,0,0,0,0,0,0,0,0,0,0,0,0,0,0,0,0,0,0,0,0,0,0,0,0,0,0,0,0,0,0,0],"sum_hessian":[4.966405E3,4.548266E3,4.1813898E2,3.8494617E3,6.988042E2,1.0026065E2,3.1787833E2,2.514562E3,1.3348995E3,2.911211E2,4.0768314E2,3.037808E1,6.988257E1,2.4921916E0,3.1538614E2,1.3306892E3,1.1838729E3,5.6777997E2,7.6711957E2,1.5006476E2,1.4105632E2,2.5617725E2,1.5150587E2,2.1435865E1,8.942216E0,6.813464E1,1.7479265E0,1.2471664E0,1.2450252E0,4.0686146E1,2.7469998E2,7.9043445E2,5.402547E2,6.946685E2,4.8920444E2,2.621324E2,3.056476E2,4.3912762E2,3.2799197E2,1.0839602E2,4.1668747E1,2.7429678E1,1.1362664E2,1.09721756E2,1.4645549E2,1.1164232E1,1.4034164E2,1.0718607E1,1.07172575E1,7.2026587E0,1.7395568E0,2.73139E0,6.540326E1,3.7194362E0,3.696671E1,9.373286E0,2.6532672E2],"tree_param":{"num_deleted":"0","num_feature":"9","num_nodes":"57","size_leaf_vector":"1"}},{"base_weights":[-9.3679415E-4,-1.3560826E-1,1.4509596E0,-3.286819E-1,9.1674244E-1,1.0908258E0,1.5640296E0,-8.244779E-1,4.2425215E-2,5.1468784E-1,1.2069728E0,5.470716E-1,1.3093693E0,4.876851E-1,1.5710189E0,-1.1418611E0,-4.279645E-1,-2.687808E-1,5.7243687E-1,1.16327636E-1,9.340695E-1,7.6284856E-1,1.307037E0,3.78172E-2,8.926381E-1,1.3366936E0,9.829122E-5,4.4828085E-3,1.8256994E-2,1.4258943E0,1.628737E0,-3.9002586E-2,-2.0736473E-2,-2.3444885E-2,2.064476E-3,-1.963683E-2,3.767925E-3,4.2397333E-3,2.5818383E-2,-1.7857214E-2,1.141913E-2,3.367001E-3,3.336096E-2,1.1431958E-2,3.897253E-2,3.314382E-2,4.35996E-2,-1.255898E-2,1.9570332E-2,3.4210691E-3,3.6878135E-2,8.296459E-3,4.1242834E-2,4.3480918E-2,1.096822E-2,3.7550967E-2,4.9690023E-2],"categories":[],"categories_nodes":[],"categories_segments":[],"categories_sizes":[],"default_left":[0,0,0,0,0,0,0,0,0,0,0,0,0,0,0,0,0,0,0,0,0,0,0,0,0,0,0,0,0,0,0,0,0,0,0,0,0,0,0,0,0,0,0,0,0,0,0,0,0,0,0,0,0,0,0,0,0],"id":6,"left_children":[1,3,5,7,9,11,13,15,17,19,21,23,25,27,29,31,33,35,37,39,41,43,45,47,49,51,-1,-1,-1,53,55,-1,-1,-1,-1,-1,-1,-1,-1,-1,-1,-1,-1,-1,-1,-1,-1,-1,-1,-1,-1,-1,-1,-1,-1,-1,-1],"loss_changes":[9.6426227E2,9.1724744E2,1.5339539E1,7.0179663E2,8.104785E1,1.1562607E1,1.6132202E0,2.0499182E2,3.6010416E2,4.92026E1,1.7033875E1,5.481658E0,2.60038E0,5.179417E-2,3.059082E-1,6.3722534E1,1.2782306E2,2.0937488E2,1.0021713E2,2.8911171E1,2.0884132E1,1.5270119E1,8.149109E0,4.11988E0,4.7419987E0,2.5049286E0,0E0,0E0,0E0,1.8917542E0,1.895752E-1,0E0,0E0,0E0,0E0,0E0,0E0,0E0,0E0,0E0,0E0,0E0,0E0,0E0,0E0,0E0,0E0,0E0,0E0,0E0,0E0,0E0,0E0,0E0,0E0,0E0,0E0],"parents":[2147483647,0,0,1,1,2,2,3,3,4,4,5,5,6,6,7,7,8,8,9,9,10,10,11,11,12,12,13,13,14,14,15,15,16,16,17,17,18,18,19,19,20,20,21,21,22,22,23,23,24,24,25,25,29,29,30,30],"right_children":[2,4,6,8,10,12,14,16,18,20,22,24,26,28,30,32,34,36,38,40,42,44,46,48,50,52,-1,-1,-1,54,56,-1,-1,-1,-1,-1,-1,-1,-1,-1,-1,-1,-1,-1,-1,-1,-1,-1,-1,-1,-1,-1,-1,-1,-1,-1,-1],"split_conditions":[-2.9956025E-1,-3.8980678E-1,-8.919987E-1,-2.4332136E-1,-3.0814064E-1,-6.719152E-1,-1.7172214E0,2.0241037E-1,4.8891723E-1,2.4466997E-2,-1.1009301E0,-3.044307E-1,1.6411141E0,2.3577897E-1,-5.863639E-1,8.1237614E-1,2.6434326E-1,2.465182E-4,-2.849552E-1,-7.012937E-1,-1.4507186E0,4.1150886E-1,5.72598E-1,1.5722278E-1,-9.446293E-1,-1.5255047E0,9.829122E-5,4.4828085E-3,1.8256994E-2,-6.179242E-1,-1.3688837E0,-3.9002586E-2,-2.0736473E-2,-2.3444885E-2,2.064476E-3,-1.963683E-2,3.767925E-3,4.2397333E-3,2.5818383E-2,-1.7857214E-2,1.141913E-2,3.367001E-3,3.336096E-2,1.1431958E-2,3.897253E-2,3.314382E-2,4.35996E-2,-1.255898E-2,1.9570332E-2,3.4210691E-3,3.6878135E-2,8.296459E-3,4.1242834E-2,4.3480918E-2,1.096822E-2,3.7550967E-2,4.9690023E-2],"split_indices":[6,4,7,7,7,1,8,8,8,8,1,8,0,0,1,1,1,1,1,1,7,8,7,2,5,5,0,0,0,1,8,0,0,0,0,0,0,0,0,0,0,0,0,0,0,0,0,0,0,0,0,0,0,0,0,0,0],"split_type":[0,0,0,0,0,0,0,0,0,0,0,0,0,0,0,0,0,0,0,0,0,0,0,0,0,0,0,0,0,0,0,0,0,0,0,0,0,0,0,0,0,0,0,0,0,0,0,0,0,0,0,0,0,0,0,0,0],"sum_hessian":[4.92955E3,4.511948E3,4.176017E2,3.8130583E3,6.9888995E2,1.0232831E2,3.152734E2,1.6317852E3,2.1812732E3,2.9416217E2,4.047278E2,3.0340916E1,7.198739E1,2.4906723E0,3.127827E2,9.052842E2,7.26501E2,1.374628E3,8.066451E2,1.5151717E2,1.4264502E2,7.600615E1,3.2872165E2,1.2713995E1,1.762692E1,7.048929E1,1.4981065E0,1.2444673E0,1.2462051E0,9.631514E1,2.1646759E2,6.6863586E2,2.3664832E2,4.2411102E2,3.0238998E2,6.9455536E2,6.8007263E2,3.2377173E2,4.8287338E2,4.069829E1,1.1081887E2,2.568083E1,1.1696419E2,4.5396133E1,3.0610016E1,1.4156042E2,1.8716122E2,7.4782085E0,5.235786E0,5.7247767E0,1.1902144E1,2.7298653E0,6.775942E1,9.3870346E1,2.4447935E0,1.7925236E1,1.9854234E2],"tree_param":{"num_deleted":"0","num_feature":"9","num_nodes":"57","size_leaf_vector":"1"}},{"base_weights":[2.5723584E-3,-1.2703787E-1,1.4328345E0,-3.1171897E-1,8.9519715E-1,1.1863925E0,1.563556E0,-6.9988644E-1,1.27953E-1,5.6547767E-1,1.2210948E0,1.2117113E0,-2.2686988E-2,1.1209792E0,4.765804E-2,-9.858872E-1,-2.5121897E-1,-3.6121988E-1,4.1895476E-1,1.7585205E-1,9.6425265E-1,1.0645506E0,1.5127808E0,9.017706E-1,1.3416386E0,1.2458202E0,-8.140077E-4,-3.759886E-2,-1.9390061E-2,-1.8355489E-2,7.813834E-3,-1.9806199E-2,4.984004E-3,-2.2065698E-3,2.054712E-2,-1.6747665E-2,1.337908E-2,-3.23092E-4,3.3464562E-2,2.2997085E-2,3.8710736E-2,4.8235256E-2,3.573083E-2,3.8186878E-2,1.5637761E-2,-3.8057107E-3,4.0950216E-2,4.0126637E-2,2.5370608E-3],"categories":[],"categories_nodes":[],"categories_segments":[],"categories_sizes":[],"default_left":[0,0,0,0,0,0,0,0,0,0,0,0,0,0,0,0,0,0,0,0,0,0,0,0,0,0,0,0,0,0,0,0,0,0,0,0,0,0,0,0,0,0,0,0,0,0,0,0,0],"id":7,"left_children":[1,3,5,7,9,11,13,15,17,19,21,23,-1,25,-1,27,29,31,33,35,37,39,41,43,45,47,-1,-1,-1,-1,-1,-1,-1,-1,-1,-1,-1,-1,-1,-1,-1,-1,-1,-1,-1,-1,-1,-1,-1],"loss_changes":[9.150068E2,8.5469794E2,1.1357361E1,6.544293E2,7.375372E1,8.111694E0,1.1547241E0,2.6106647E2,2.5618115E2,5.3626915E1,1.42595215E1,4.620987E0,0E0,2.5537968E0,0E0,1.1208252E2,1.4669476E2,1.0597103E2,1.4782257E2,3.5218826E1,2.5210419E1,1.4456177E1,1.7250366E0,5.806961E0,3.6040192E0,1.5783863E0,0E0,0E0,0E0,0E0,0E0,0E0,0E0,0E0,0E0,0E0,0E0,0E0,0E0,0E0,0E0,0E0,0E0,0E0,0E0,0E0,0E0,0E0,0E0],"parents":[2147483647,0,0,1,1,2,2,3,3,4,4,5,5,6,6,7,7,8,8,9,9,10,10,11,11,13,13,15,15,16,16,17,17,18,18,19,19,20,20,21,21,22,22,23,23,24,24,25,25],"right_children":[2,4,6,8,10,12,14,16,18,20,22,24,-1,26,-1,28,30,32,34,36,38,40,42,44,46,48,-1,-1,-1,-1,-1,-1,-1,-1,-1,-1,-1,-1,-1,-1,-1,-1,-1,-1,-1,-1,-1,-1,-1],"split_conditions":[-2.9956025E-1,-3.8980678E-1,-4.7725242E-1,1.0792147E-1,-3.8752884E-2,1.7022156E0,-1.51151E0,4.1150886E-1,-4.434831E-1,2.4466997E-2,5.286945E-1,-6.7220837E-1,-2.2686988E-2,-1.5350235E0,4.765804E-2,2.1272376E-1,3.15109E-1,4.8891723E-1,-4.9025562E-1,-7.012937E-1,-1.4953858E0,-2.472189E-1,7.856927E-1,1.1357592E-1,-1.7224609E0,1.2745049E0,-8.140077E-4,-3.759886E-2,-1.9390061E-2,-1.8355489E-2,7.813834E-3,-1.9806199E-2,4.984004E-3,-2.2065698E-3,2.054712E-2,-1.6747665E-2,1.337908E-2,-3.23092E-4,3.3464562E-2,2.2997085E-2,3.8710736E-2,4.8235256E-2,3.573083E-2,3.8186878E-2,1.5637761E-2,-3.8057107E-3,4.0950216E-2,4.0126637E-2,2.5370608E-3],"split_indices":[6,4,7,7,7,0,1,8,1,8,1,8,0,1,0,1,1,8,8,1,7,8,0,0,7,0,0,0,0,0,0,0,0,0,0,0,0,0,0,0,0,0,0,0,0,0,0,0,0],"split_type":[0,0,0,0,0,0,0,0,0,0,0,0,0,0,0,0,0,0,0,0,0,0,0,0,0,0,0,0,0,0,0,0,0,0,0,0,0,0,0,0,0,0,0,0,0,0,0,0,0],"sum_hessian":[4.933952E3,4.524824E3,4.09128E2,3.8330288E3,6.9179535E2,1.4529227E2,2.6383572E2,2.035437E3,1.7975918E3,3.4524094E2,3.465544E2,1.437944E2,1.4978611E0,1.6581581E1,2.4725415E2,1.2423256E3,7.931114E2,6.7040393E2,1.1271879E3,1.7535255E2,1.6988837E2,2.2854617E2,1.1800824E2,4.4819153E1,9.897525E1,1.4878639E1,1.7029424E0,6.9348926E2,5.4883636E2,4.651085E2,3.280029E2,4.2767734E2,2.4272664E2,3.95497E2,7.3169086E2,4.6879562E1,1.2847299E2,2.2937212E1,1.4695116E2,1.0042179E2,1.2812437E2,8.800903E1,2.9999205E1,2.1502176E1,2.3316978E1,1.4809968E0,9.7494255E1,1.3648627E1,1.230012E0],"tree_param":{"num_deleted":"0","num_feature":"9","num_nodes":"49","size_leaf_vector":"1"}},{"base_weights":[-2.4985562E-3,-1.2880485E-1,1.3985016E0,-3.105853E-1,8.741136E-1,1.0385667E0,1.5043076E0,-7.768881E-1,3.923326E-2,4.412672E-1,1.106993E0,1.0899875E0,-2.2938928E-2,1.0229573E-2,1.5115725E0,-1.0585965E0,-3.792009E-1,-4.2087603E-1,3.660329E-1,-1.570445E-1,7.444155E-1,8.710763E-1,1.3203875E0,8.625334E-1,1.4921142E0,1.0919441E0,4.6084907E-2,-3.6756627E-2,-1.7605264E-2,-2.2035029E-2,3.3548896E-3,-2.2368317E-2,-6.1670085E-4,7.6790777E-4,2.2062065E-2,-1.981672E-2,8.653449E-3,1.1884821E-2,3.394606E-2,1.8717563E-2,3.7797276E-2,1.8034237E-2,4.098075E-2,8.856057E-3,3.3369225E-2,3.4956897E-3,4.628977E-2,3.4642875E-2,1.504434E-3],"categories":[],"categories_nodes":[],"categories_segments":[],"categories_sizes":[],"default_left":[0,0,0,0,0,0,0,0,0,0,0,0,0,0,0,0,0,0,0,0,0,0,0,0,0,0,0,0,0,0,0,0,0,0,0,0,0,0,0,0,0,0,0,0,0,0,0,0,0],"id":8,"left_children":[1,3,5,7,9,11,13,15,17,19,21,23,-1,-1,25,27,29,31,33,35,37,39,41,43,45,47,-1,-1,-1,-1,-1,-1,-1,-1,-1,-1,-1,-1,-1,-1,-1,-1,-1,-1,-1,-1,-1,-1,-1],"loss_changes":[8.719686E2,8.2433496E2,1.395697E1,6.243402E2,6.944995E1,9.716827E0,2.1272583E0,1.8339264E2,3.291073E2,4.4440475E1,2.1527222E1,7.2707443E0,0E0,0E0,1.5264282E0,7.472266E1,1.1903221E2,1.181544E2,1.6089966E2,1.8809454E1,2.1441528E1,2.0056366E1,6.8787537E0,8.475834E0,2.0900574E0,1.29319E0,0E0,0E0,0E0,0E0,0E0,0E0,0E0,0E0,0E0,0E0,0E0,0E0,0E0,0E0,0E0,0E0,0E0,0E0,0E0,0E0,0E0,0E0,0E0],"parents":[2147483647,0,0,1,1,2,2,3,3,4,4,5,5,6,6,7,7,8,8,9,9,10,10,11,11,14,14,15,15,16,16,17,17,18,18,19,19,20,20,21,21,22,22,23,23,24,24,25,25],"right_children":[2,4,6,8,10,12,14,16,18,20,22,24,-1,-1,26,28,30,32,34,36,38,40,42,44,46,48,-1,-1,-1,-1,-1,-1,-1,-1,-1,-1,-1,-1,-1,-1,-1,-1,-1,-1,-1,-1,-1,-1,-1],"split_conditions":[-2.9956025E-1,-3.8980678E-1,-9.3071026E-1,-2.4332136E-1,-5.298142E-1,1.6411141E0,-1.7172214E0,3.3410048E-1,-2.472189E-1,-5.602939E-1,-5.606503E-2,4.6885344E-1,-2.2938928E-2,1.0229573E-2,-1.51151E0,8.1237614E-1,2.6434326E-1,1.9892062E-1,1.0420043E-1,-6.6362405E-3,6.3171186E-2,4.1150886E-1,-1.4849963E0,-6.719152E-1,-1.5255047E0,-1.5225159E0,4.6084907E-2,-3.6756627E-2,-1.7605264E-2,-2.2035029E-2,3.3548896E-3,-2.2368317E-2,-6.1670085E-4,7.6790777E-4,2.2062065E-2,-1.981672E-2,8.653449E-3,1.1884821E-2,3.394606E-2,1.8717563E-2,3.7797276E-2,1.8034237E-2,4.098075E-2,8.856057E-3,3.3369225E-2,3.4956897E-3,4.628977E-2,3.4642875E-2,1.504434E-3],"split_indices":[6,4,7,7,7,0,8,8,8,1,1,3,0,0,1,1,1,1,1,3,8,8,8,1,5,1,0,0,0,0,0,0,0,0,0,0,0,0,0,0,0,0,0,0,0,0,0,0,0],"split_type":[0,0,0,0,0,0,0,0,0,0,0,0,0,0,0,0,0,0,0,0,0,0,0,0,0,0,0,0,0,0,0,0,0,0,0,0,0,0,0,0,0,0,0,0,0,0,0,0,0],"sum_hessian":[4.9256074E3,4.519099E3,4.0650842E2,3.826272E3,6.92827E2,9.480676E1,3.1170166E2,1.6395525E3,2.1867192E3,2.4337236E2,4.4945468E2,9.256273E1,2.2440367E0,2.231949E0,3.0946973E2,9.5874646E2,6.80806E2,9.080149E2,1.2787045E3,8.200477E1,1.6136758E2,2.1587634E2,2.3357832E2,6.113053E1,3.1432198E1,1.96451E1,2.8982462E2,7.0732196E2,2.5142448E2,3.9470755E2,2.860985E2,5.0086017E2,4.0715472E2,6.6597015E2,6.127343E2,3.8268967E1,4.3735798E1,8.601313E1,7.535446E1,1.3357526E2,8.23011E1,1.4782235E1,2.187961E2,1.9353436E1,4.1777096E1,1.238454E0,3.0193743E1,1.8425632E1,1.2194664E0],"tree_param":{"num_deleted":"0","num_feature":"9","num_nodes":"49","size_leaf_vector":"1"}},{"base_weights":[-4.453447E-3,-1.2633064E-1,1.3561467E0,-3.0119723E-1,8.5476303E-1,1.0010284E0,1.4694874E0,-5.8813846E-1,2.4375011E-1,5.256019E-1,1.1783091E0,5.5510765E-1,1.185857E0,1.0159586E-2,1.4767423E0,-9.2253965E-1,-2.1319102E-1,-1.373869E-1,6.157477E-1,1.3053702E-1,9.3630046E-1,9.247766E-1,1.3520057E0,3.4219313E-2,8.9480144E-1,1.2225528E0,-4.860748E-3,1.0361145E0,1.5020255E0,-3.4525275E-2,-1.8844467E-2,-1.6408417E-2,7.776979E-3,-1.3264415E-2,1.1771331E-2,5.2693947E-3,2.5636462E-2,-1.6958205E-2,1.2074417E-2,1.6752096E-2,3.7315622E-2,1.1172547E-2,3.383066E-2,4.2425103E-2,3.0206285E-2,2.3014152E-2,-1.2463359E-2,8.654397E-3,3.605531E-2,2.5802486E-2,4.071609E-2,3.389386E-2,3.7543774E-3,3.3957545E-2,4.5797188E-2],"categories":[],"categories_nodes":[],"categories_segments":[],"categories_sizes":[],"default_left":[0,0,0,0,0,0,0,0,0,0,0,0,0,0,0,0,0,0,0,0,0,0,0,0,0,0,0,0,0,0,0,0,0,0,0,0,0,0,0,0,0,0,0,0,0,0,0,0,0,0,0,0,0,0,0],"id":9,"left_children":[1,3,5,7,9,11,13,15,17,19,21,23,25,-1,27,29,31,33,35,37,39,41,43,45,47,49,-1,51,53,-1,-1,-1,-1,-1,-1,-1,-1,-1,-1,-1,-1,-1,-1,-1,-1,-1,-1,-1,-1,-1,-1,-1,-1,-1,-1],"loss_changes":[8.128412E2,7.7206555E2,1.474884E1,5.973039E2,7.188544E1,7.6360474E0,1.9885864E0,3.1350873E2,1.8694864E2,5.492665E1,1.383371E1,5.519986E0,3.6735764E0,0E0,1.7982788E0,8.814221E1,1.8632115E2,1.0540805E2,6.9966415E1,3.316957E1,1.8620178E1,1.5542892E1,2.890686E0,4.742205E0,3.180666E0,2.1769943E0,0E0,1.5282326E0,8.391113E-1,0E0,0E0,0E0,0E0,0E0,0E0,0E0,0E0,0E0,0E0,0E0,0E0,0E0,0E0,0E0,0E0,0E0,0E0,0E0,0E0,0E0,0E0,0E0,0E0,0E0,0E0],"parents":[2147483647,0,0,1,1,2,2,3,3,4,4,5,5,6,6,7,7,8,8,9,9,10,10,11,11,12,12,14,14,15,15,16,16,17,17,18,18,19,19,20,20,21,21,22,22,23,23,24,24,25,25,27,27,28,28],"right_children":[2,4,6,8,10,12,14,16,18,20,22,24,26,-1,28,30,32,34,36,38,40,42,44,46,48,50,-1,52,54,-1,-1,-1,-1,-1,-1,-1,-1,-1,-1,-1,-1,-1,-1,-1,-1,-1,-1,-1,-1,-1,-1,-1,-1,-1,-1],"split_conditions":[-2.9956025E-1,-3.8980678E-1,-8.919987E-1,5.428892E-1,-3.8752884E-2,-6.719152E-1,-1.7172214E0,1.4057957E-1,-4.0262908E-2,2.4466997E-2,-3.044307E-1,-3.044307E-1,1.6411141E0,1.0159586E-2,-1.51151E0,2.1272376E-1,3.15109E-1,4.8891723E-1,-4.9025562E-1,-7.012937E-1,-2.0817493E-1,-7.012937E-1,1.0912004E0,-6.972866E-2,-9.446293E-1,-6.7220837E-1,-4.860748E-3,1.2745049E0,-1.4075879E0,-3.4525275E-2,-1.8844467E-2,-1.6408417E-2,7.776979E-3,-1.3264415E-2,1.1771331E-2,5.2693947E-3,2.5636462E-2,-1.6958205E-2,1.2074417E-2,1.6752096E-2,3.7315622E-2,1.1172547E-2,3.383066E-2,4.2425103E-2,3.0206285E-2,2.3014152E-2,-1.2463359E-2,8.654397E-3,3.605531E-2,2.5802486E-2,4.071609E-2,3.389386E-2,3.7543774E-3,3.3957545E-2,4.5797188E-2],"split_indices":[6,4,7,7,7,1,8,8,1,8,8,8,0,0,1,1,1,8,8,1,1,1,0,0,5,8,0,0,8,0,0,0,0,0,0,0,0,0,0,0,0,0,0,0,0,0,0,0,0,0,0,0,0,0,0],"split_type":[0,0,0,0,0,0,0,0,0,0,0,0,0,0,0,0,0,0,0,0,0,0,0,0,0,0,0,0,0,0,0,0,0,0,0,0,0,0,0,0,0,0,0,0,0,0,0,0,0,0,0,0,0,0,0],"sum_hessian":[4.8997344E3,4.497751E3,4.0198364E2,3.8179468E3,6.798041E2,9.963624E1,3.023474E2,2.5009802E3,1.3169667E3,3.382789E2,3.4152518E2,3.0369549E1,6.926669E1,2.2312791E0,3.0011612E2,1.321196E3,1.1797842E3,6.50804E2,6.661626E2,1.7309283E2,1.6518607E2,1.4142355E2,2.0010162E2,1.2422128E1,1.7947422E1,6.752142E1,1.7452699E0,1.856426E1,2.8155188E2,7.424835E2,5.7871246E2,6.912644E2,4.8851978E2,4.132418E2,2.3756226E2,2.3493037E2,4.3123224E2,4.833682E1,1.2475601E2,7.538034E1,8.980572E1,3.8756824E1,1.0266673E2,1.6693576E2,3.3165867E1,4.4549212E0,7.967206E0,6.685332E0,1.126209E1,2.0289879E1,4.7231544E1,1.6615377E1,1.9488832E0,2.0442791E1,2.6110907E2],"tree_param":{"num_deleted":"0","num_feature":"9","num_nodes":"55","size_leaf_vector":"1"}},{"base_weights":[4.0179773E-4,-1.2166731E-1,1.3486407E0,-2.9365832E-1,8.3260334E-1,1.1367126E0,1.4621322E0,-7.811748E-1,4.692698E-3,1.3841972E-1,9.8778313E-1,1.161042E0,-2.176922E-2,1.0496826E0,1.4884034E0,-1.0393119E0,-4.106629E-1,-4.0185082E-1,3.3514825E-1,-2.006218E-1,5.909746E-1,6.955581E-1,1.2145898E0,9.659341E-1,1.3534794E0,1.154576E0,2.4020218E-3,1.6052576E-2,4.4820923E-2,-3.714176E-2,-2.2671882E-2,-2.2200912E-2,2.2941697E-3,-2.1880845E-2,-1.2823581E-3,-5.567E-3,1.741874E-2,-1.8307934E-2,6.449586E-3,-3.675031E-2,2.0768236E-2,1.588221E-2,3.9320223E-2,2.6735622E-2,4.055265E-2,2.5096504E-2,4.6363644E-2,2.2493692E-2,4.202002E-2,3.8564067E-2,-3.897618E-4],"categories":[],"categories_nodes":[],"categories_segments":[],"categories_sizes":[],"default_left":[0,0,0,0,0,0,0,0,0,0,0,0,0,0,0,0,0,0,0,0,0,0,0,0,0,0,0,0,0,0,0,0,0,0,0,0,0,0,0,0,0,0,0,0,0,0,0,0,0,0,0],"id":10,"left_children":[1,3,5,7,9,11,13,15,17,19,21,23,-1,25,27,29,31,33,35,37,39,41,43,45,47,49,-1,-1,-1,-1,-1,-1,-1,-1,-1,-1,-1,-1,-1,-1,-1,-1,-1,-1,-1,-1,-1,-1,-1,-1,-1],"loss_changes":[8.024546E2,7.3405524E2,8.074402E0,5.5111646E2,7.3441376E1,7.4428406E0,1.2562866E0,1.3715344E2,3.1604758E2,1.9444174E1,3.6143555E1,4.1058807E0,0E0,1.8368969E0,4.9975586E-1,4.6810974E1,9.5092995E1,1.2402782E2,1.6598232E2,1.2517601E1,1.0818506E1,2.446914E1,1.2674011E1,4.336998E0,9.465027E-1,2.6213856E0,0E0,0E0,0E0,0E0,0E0,0E0,0E0,0E0,0E0,0E0,0E0,0E0,0E0,0E0,0E0,0E0,0E0,0E0,0E0,0E0,0E0,0E0,0E0,0E0,0E0],"parents":[2147483647,0,0,1,1,2,2,3,3,4,4,5,5,6,6,7,7,8,8,9,9,10,10,11,11,13,13,14,14,15,15,16,16,17,17,18,18,19,19,20,20,21,21,22,22,23,23,24,24,25,25],"right_children":[2,4,6,8,10,12,14,16,18,20,22,24,-1,26,28,30,32,34,36,38,40,42,44,46,48,50,-1,-1,-1,-1,-1,-1,-1,-1,-1,-1,-1,-1,-1,-1,-1,-1,-1,-1,-1,-1,-1,-1,-1,-1,-1],"split_conditions":[-2.9956025E-1,-3.8980678E-1,-4.7725242E-1,-3.9837512E-1,-1.0724677E0,1.7022156E0,-1.51151E0,3.3410048E-1,-1.3034976E-1,1.6088447E-1,-1.9567667E-1,6.3171186E-2,-2.176922E-2,-1.5350235E0,-1.7172214E0,3.15109E-1,3.15109E-1,6.409126E-2,-5.863639E-1,-5.294138E-2,-1.6127481E0,1.1590877E0,-6.7220837E-1,-3.8980678E-1,-1.4139622E0,1.2745049E0,2.4020218E-3,1.6052576E-2,4.4820923E-2,-3.714176E-2,-2.2671882E-2,-2.2200912E-2,2.2941697E-3,-2.1880845E-2,-1.2823581E-3,-5.567E-3,1.741874E-2,-1.8307934E-2,6.449586E-3,-3.675031E-2,2.0768236E-2,1.588221E-2,3.9320223E-2,2.6735622E-2,4.055265E-2,2.5096504E-2,4.6363644E-2,2.2493692E-2,4.202002E-2,3.8564067E-2,-3.897618E-4],"split_indices":[6,4,7,7,7,0,1,8,8,1,1,8,0,1,8,1,1,1,1,8,2,7,8,4,0,0,0,0,0,0,0,0,0,0,0,0,0,0,0,0,0,0,0,0,0,0,0,0,0,0,0],"split_type":[0,0,0,0,0,0,0,0,0,0,0,0,0,0,0,0,0,0,0,0,0,0,0,0,0,0,0,0,0,0,0,0,0,0,0,0,0,0,0,0,0,0,0,0,0,0,0,0,0,0,0],"sum_hessian":[4.873825E3,4.470021E3,4.0380447E2,3.7879922E3,6.820287E2,1.4467046E2,2.59134E2,1.4374796E3,2.3505125E3,1.2495318E2,5.570755E2,1.4317659E2,1.4938593E0,1.7969748E1,2.4116426E2,8.461551E2,5.913246E2,1.0538256E3,1.2966869E3,7.175387E1,5.319931E1,2.4520815E2,3.1186737E2,7.4083984E1,6.9092606E1,1.604341E1,1.9263384E0,1.9790974E0,2.3918517E2,4.9551263E2,3.5064243E2,3.5248154E2,2.3884306E2,5.506196E2,5.0320593E2,4.1551764E2,8.811692E2,3.5900394E1,3.5853474E1,2.2246966E0,5.0974613E1,1.9452502E2,5.068312E1,9.511241E1,2.1675497E2,6.2560284E1,1.1523704E1,6.233605E0,6.2859E1,1.4335333E1,1.7080762E0],"tree_param":{"num_deleted":"0","num_feature":"9","num_nodes":"51","size_leaf_vector":"1"}},{"base_weights":[4.2935354E-3,-1.1209382E-1,1.3074293E0,-2.7711272E-1,8.1358224E-1,1.0051681E0,1.4153584E0,-6.8310815E-1,1.0900065E-1,1.7533924E-1,9.6133983E-1,5.315904E-1,1.2013078E0,3.27657E-3,1.4205488E0,-9.170852E-1,-2.4224131E-1,-1.6097859E-1,5.4512566E-1,5.31691E-1,-3.0692968E-1,6.504484E-1,1.1583434E0,1.0694073E-1,9.1244006E-1,1.2354623E0,-4.78715E-3,1.0130807E0,1.4428041E0,-3.1625062E-2,-1.1562232E-2,-1.8193346E-2,4.212638E-3,-1.4188193E-2,6.2038978E-3,3.9438023E-3,2.333671E-2,-1.1003623E-2,2.1403989E-2,-2.4557132E-2,4.909959E-3,9.087853E-3,3.0654287E-2,2.1745712E-2,3.7838034E-2,1.5795518E-2,-2.1240795E-2,3.133333E-2,1.8050387E-3,3.948242E-2,1.7732216E-2,3.245145E-2,6.092404E-4,4.009411E-2,4.6532292E-2],"categories":[],"categories_nodes":[],"categories_segments":[],"categories_sizes":[],"default_left":[0,0,0,0,0,0,0,0,0,0,0,0,0,0,0,0,0,0,0,0,0,0,0,0,0,0,0,0,0,0,0,0,0,0,0,0,0,0,0,0,0,0,0,0,0,0,0,0,0,0,0,0,0,0,0],"id":11,"left_children":[1,3,5,7,9,11,13,15,17,19,21,23,25,-1,27,29,31,33,35,37,39,41,43,45,47,49,-1,51,53,-1,-1,-1,-1,-1,-1,-1,-1,-1,-1,-1,-1,-1,-1,-1,-1,-1,-1,-1,-1,-1,-1,-1,-1,-1,-1],"loss_changes":[7.3774945E2,6.8233887E2,1.1587952E1,5.94286E2,6.3568726E1,9.429253E0,1.8204956E0,1.9038885E2,2.289507E2,2.2208357E1,3.2845642E1,5.3263187E0,3.7226868E0,0E0,1.1699219E0,8.755194E1,8.956345E1,1.3792615E2,7.147835E1,1.2369366E1,1.3410786E1,2.7446075E1,1.4010742E1,6.1822166E0,1.9113331E0,3.0719757E0,0E0,1.2308712E0,1.0678711E0,0E0,0E0,0E0,0E0,0E0,0E0,0E0,0E0,0E0,0E0,0E0,0E0,0E0,0E0,0E0,0E0,0E0,0E0,0E0,0E0,0E0,0E0,0E0,0E0,0E0,0E0],"parents":[2147483647,0,0,1,1,2,2,3,3,4,4,5,5,6,6,7,7,8,8,9,9,10,10,11,11,12,12,14,14,15,15,16,16,17,17,18,18,19,19,20,20,21,21,22,22,23,23,24,24,25,25,27,27,28,28],"right_children":[2,4,6,8,10,12,14,16,18,20,22,24,26,-1,28,30,32,34,36,38,40,42,44,46,48,50,-1,52,54,-1,-1,-1,-1,-1,-1,-1,-1,-1,-1,-1,-1,-1,-1,-1,-1,-1,-1,-1,-1,-1,-1,-1,-1,-1,-1],"split_conditions":[-2.9956025E-1,-3.8980678E-1,-7.949776E-1,-3.8752884E-2,-1.0724677E0,-6.719152E-1,-1.7172214E0,5.663256E-1,4.5021304E-1,1.7467745E-1,-3.6257488E-1,-6.6362405E-3,1.6411141E0,3.27657E-3,-1.51151E0,1.0029548E0,8.073323E-2,1.3362986E-1,-4.5723537E-1,-1.1457851E0,-1.420525E0,3.9164424E-1,-1.1009301E0,-4.3344074E-1,1.3788722E0,1.4011961E0,-4.78715E-3,-1.5225159E0,2.0241037E-1,-3.1625062E-2,-1.1562232E-2,-1.8193346E-2,4.212638E-3,-1.4188193E-2,6.2038978E-3,3.9438023E-3,2.333671E-2,-1.1003623E-2,2.1403989E-2,-2.4557132E-2,4.909959E-3,9.087853E-3,3.0654287E-2,2.1745712E-2,3.7838034E-2,1.5795518E-2,-2.1240795E-2,3.133333E-2,1.8050387E-3,3.948242E-2,1.7732216E-2,3.245145E-2,6.092404E-4,4.009411E-2,4.6532292E-2],"split_indices":[6,4,7,7,7,1,8,8,8,0,8,3,0,0,1,1,1,1,1,2,7,7,1,3,5,1,0,1,8,0,0,0,0,0,0,0,0,0,0,0,0,0,0,0,0,0,0,0,0,0,0,0,0,0,0],"split_type":[0,0,0,0,0,0,0,0,0,0,0,0,0,0,0,0,0,0,0,0,0,0,0,0,0,0,0,0,0,0,0,0,0,0,0,0,0,0,0,0,0,0,0,0,0,0,0,0,0,0,0,0,0,0,0],"sum_hessian":[4.862256E3,4.4644365E3,3.9781955E2,3.7895752E3,6.7486127E2,1.0738776E2,2.904318E2,1.846853E3,1.942722E3,1.2727593E2,5.475853E2,3.2537216E1,7.485054E1,1.2367887E0,2.89195E2,1.2058198E3,6.4103326E2,1.2003112E3,7.424109E2,7.313414E1,5.4141792E1,2.1406735E2,3.3351797E2,1.5989558E1,1.6547657E1,7.310788E1,1.7426555E0,1.7386696E1,2.7180832E2,9.5786786E2,2.4795193E2,3.2813867E2,3.128946E2,6.492804E2,5.5103076E2,2.6788855E2,4.745223E2,1.213508E1,6.0999058E1,2.558537E1,2.8556425E1,1.1152136E2,1.0254599E2,6.553736E1,2.6798062E2,1.0788938E1,5.20062E0,1.4133158E1,2.4145002E0,6.4052055E1,9.055825E0,1.6178614E1,1.2080824E0,1.4386386E2,1.2794445E2],"tree_param":{"num_deleted":"0","num_feature":"9","num_nodes":"55","size_leaf_vector":"1"}},{"base_weights":[2.676656E-3,-1.105712E-1,1.2719042E0,-2.7051786E-1,7.831762E-1,9.490132E-1,1.3724139E0,-5.461163E-1,2.5436592E-1,4.6627212E-1,1.0985541E0,7.3152465E-1,1.334976E0,4.195088E-1,1.3788918E0,-7.833351E-1,-9.904082E-2,-1.900947E-2,7.000207E-1,1.1110482E-1,8.4500474E-1,9.538453E-1,1.3768675E0,2.2627728E-1,9.4798064E-1,1.3997213E0,-6.117071E-3,1.6614597E-2,2.9177149E-3,9.7656184E-1,1.4018899E0,-2.8955625E-2,-1.0061133E-2,-1.1387268E-2,9.171444E-3,-1.5009284E-2,7.4569085E-3,9.690453E-3,2.8986672E-2,-1.4384905E-2,1.2488153E-2,-4.671087E-4,2.952999E-2,1.9895207E-2,3.495137E-2,4.409914E-2,3.291377E-2,-7.869294E-3,2.0387592E-2,3.3381738E-2,5.2976483E-3,4.580978E-2,2.479465E-2,9.722468E-3,3.271657E-2,3.7742186E-2,4.3815605E-2],"categories":[],"categories_nodes":[],"categories_segments":[],"categories_sizes":[],"default_left":[0,0,0,0,0,0,0,0,0,0,0,0,0,0,0,0,0,0,0,0,0,0,0,0,0,0,0,0,0,0,0,0,0,0,0,0,0,0,0,0,0,0,0,0,0,0,0,0,0,0,0,0,0,0,0,0,0],"id":12,"left_children":[1,3,5,7,9,11,13,15,17,19,21,23,25,27,29,31,33,35,37,39,41,43,45,47,49,51,-1,-1,-1,53,55,-1,-1,-1,-1,-1,-1,-1,-1,-1,-1,-1,-1,-1,-1,-1,-1,-1,-1,-1,-1,-1,-1,-1,-1,-1,-1],"loss_changes":[6.9783795E2,6.3738763E2,1.1604431E1,5.4714844E2,6.713565E1,7.2204514E0,1.2799072E0,2.6292017E2,1.5870917E2,4.5552902E1,1.2319824E1,6.8579063E0,3.6711845E0,9.632635E-2,1.3936768E0,1.3164868E2,9.785908E1,1.0422198E2,4.939305E1,3.1969698E1,1.968821E1,1.3099274E1,1.3444672E0,4.76496E0,5.517063E0,1.1263199E0,0E0,0E0,0E0,1.0925102E0,5.2471924E-1,0E0,0E0,0E0,0E0,0E0,0E0,0E0,0E0,0E0,0E0,0E0,0E0,0E0,0E0,0E0,0E0,0E0,0E0,0E0,0E0,0E0,0E0,0E0,0E0,0E0,0E0],"parents":[2147483647,0,0,1,1,2,2,3,3,4,4,5,5,6,6,7,7,8,8,9,9,10,10,11,11,12,12,13,13,14,14,15,15,16,16,17,17,18,18,19,19,20,20,21,21,22,22,23,23,24,24,25,25,29,29,30,30],"right_children":[2,4,6,8,10,12,14,16,18,20,22,24,26,28,30,32,34,36,38,40,42,44,46,48,50,52,-1,-1,-1,54,56,-1,-1,-1,-1,-1,-1,-1,-1,-1,-1,-1,-1,-1,-1,-1,-1,-1,-1,-1,-1,-1,-1,-1,-1,-1,-1],"split_conditions":[-2.9956025E-1,-3.8980678E-1,-9.3071026E-1,5.428892E-1,-3.8752884E-2,4.6885344E-1,-1.7172214E0,5.663256E-1,4.5021304E-1,2.4466997E-2,5.286945E-1,-6.719152E-1,1.6411141E0,6.409126E-2,-1.51151E0,7.4439925E-1,3.3096436E-1,-5.1511556E-1,-2.588435E-1,-5.0189084E-1,-1.4953858E0,-2.472189E-1,7.245912E-1,-1.3034976E-1,1.0300988E0,1.5583136E0,-6.117071E-3,1.6614597E-2,2.9177149E-3,-1.0736475E0,-5.0179355E-2,-2.8955625E-2,-1.0061133E-2,-1.1387268E-2,9.171444E-3,-1.5009284E-2,7.4569085E-3,9.690453E-3,2.8986672E-2,-1.4384905E-2,1.2488153E-2,-4.671087E-4,2.952999E-2,1.9895207E-2,3.495137E-2,4.409914E-2,3.291377E-2,-7.869294E-3,2.0387592E-2,3.3381738E-2,5.2976483E-3,4.580978E-2,2.479465E-2,9.722468E-3,3.271657E-2,3.7742186E-2,4.3815605E-2],"split_indices":[6,4,7,7,7,3,8,8,8,8,1,1,0,1,1,1,1,1,1,1,7,8,0,8,0,3,0,0,0,3,7,0,0,0,0,0,0,0,0,0,0,0,0,0,0,0,0,0,0,0,0,0,0,0,0,0,0],"split_type":[0,0,0,0,0,0,0,0,0,0,0,0,0,0,0,0,0,0,0,0,0,0,0,0,0,0,0,0,0,0,0,0,0,0,0,0,0,0,0,0,0,0,0,0,0,0,0,0,0,0,0,0,0,0,0,0,0],"sum_hessian":[4.852976E3,4.456274E3,3.9670178E2,3.7804207E3,6.758536E2,9.665047E1,3.000513E2,2.478831E3,1.3015896E3,3.3834735E2,3.3750623E2,6.366871E1,3.298176E1,2.4700227E0,2.975813E2,1.6190232E3,8.5980774E2,8.073184E2,4.942712E2,1.7527324E2,1.630741E2,2.2496376E2,1.12542465E2,1.9709215E1,4.3959496E1,3.1736917E1,1.2448412E0,1.2361953E0,1.2338274E0,1.8440798E1,2.791405E2,1.1507272E3,4.6829605E2,5.0786823E2,3.5193954E2,2.8814487E2,5.191735E2,2.0547818E2,2.8879303E2,5.951679E1,1.15756454E2,2.2846802E1,1.402273E2,9.641263E1,1.2855113E2,8.1247025E1,3.1295444E1,9.688293E0,1.0020922E1,3.5858753E1,8.100741E0,2.4609247E1,7.1276693E0,3.3140855E0,1.5126713E1,8.734508E1,1.9179541E2],"tree_param":{"num_deleted":"0","num_feature":"9","num_nodes":"57","size_leaf_vector":"1"}},{"base_weights":[-7.455082E-4,-1.12188265E-1,1.2721727E0,-2.701561E-1,7.78133E-1,9.866563E-1,1.3754865E0,-5.376577E-1,2.3066372E-1,4.076052E-1,1.0445896E0,5.6771016E-1,1.1561161E0,1.1566244E0,4.262642E-2,-8.3364874E-1,-2.0855245E-1,-2.2771795E-1,4.9981567E-1,2.3744134E-2,7.697551E-1,9.045857E-1,1.3325025E0,6.476318E-1,-2.4871336E-2,1.1893499E0,-4.7040107E-3,7.0693135E-1,1.3963119E0,-3.187476E-2,-1.6490433E-2,-1.5211095E-2,6.125149E-3,-1.6897015E-2,6.7384746E-3,4.7565745E-3,2.3464927E-2,-1.2475568E-2,1.2707709E-2,9.089517E-3,3.2331023E-2,3.0758832E-2,1.322485E-2,2.4401644E-2,4.141645E-2,2.2593617E-2,-3.8346848E-3,3.6862824E-2,2.6182898E-3,3.043192E-2,4.3425555E-3,4.3338794E-2,1.8659974E-2],"categories":[],"categories_nodes":[],"categories_segments":[],"categories_sizes":[],"default_left":[0,0,0,0,0,0,0,0,0,0,0,0,0,0,0,0,0,0,0,0,0,0,0,0,0,0,0,0,0,0,0,0,0,0,0,0,0,0,0,0,0,0,0,0,0,0,0,0,0,0,0,0,0],"id":13,"left_children":[1,3,5,7,9,11,13,15,17,19,21,23,25,27,-1,29,31,33,35,37,39,41,43,45,-1,47,-1,49,51,-1,-1,-1,-1,-1,-1,-1,-1,-1,-1,-1,-1,-1,-1,-1,-1,-1,-1,-1,-1,-1,-1,-1,-1],"loss_changes":[6.8688745E2,6.2639014E2,1.0140869E1,5.0681433E2,6.583942E1,6.9477158E0,1.1750488E0,2.4000757E2,1.6265886E2,3.9239677E1,1.4506195E1,4.199703E0,3.4718857E0,4.84507E0,0E0,8.375128E1,1.4409424E2,7.420245E1,7.988922E1,2.44541E1,2.0555717E1,1.4403107E1,2.0050201E0,2.6809711E0,0E0,3.087471E0,0E0,3.4550924E0,3.8352966E-1,0E0,0E0,0E0,0E0,0E0,0E0,0E0,0E0,0E0,0E0,0E0,0E0,0E0,0E0,0E0,0E0,0E0,0E0,0E0,0E0,0E0,0E0,0E0,0E0],"parents":[2147483647,0,0,1,1,2,2,3,3,4,4,5,5,6,6,7,7,8,8,9,9,10,10,11,11,12,12,13,13,15,15,16,16,17,17,18,18,19,19,20,20,21,21,22,22,23,23,25,25,27,27,28,28],"right_children":[2,4,6,8,10,12,14,16,18,20,22,24,26,28,-1,30,32,34,36,38,40,42,44,46,-1,48,-1,50,52,-1,-1,-1,-1,-1,-1,-1,-1,-1,-1,-1,-1,-1,-1,-1,-1,-1,-1,-1,-1,-1,-1,-1,-1],"split_conditions":[-2.9956025E-1,-3.8980678E-1,-7.949776E-1,5.295237E-1,-3.0814064E-1,-6.719152E-1,-1.0592502E0,1.4057957E-1,-4.434831E-1,-9.164556E-2,5.9544057E-1,-7.150159E-1,1.6411141E0,1.8167415E-1,4.262642E-2,1.9892062E-1,3.15109E-1,2.426576E-1,-1.3034976E-1,6.449784E-2,-3.7188306E-1,9.689973E-1,-1.2884888E-1,1.3788722E0,-2.4871336E-2,1.5737013E0,-4.7040107E-3,5.412866E-1,1.518911E0,-3.187476E-2,-1.6490433E-2,-1.5211095E-2,6.125149E-3,-1.6897015E-2,6.7384746E-3,4.7565745E-3,2.3464927E-2,-1.2475568E-2,1.2707709E-2,9.089517E-3,3.2331023E-2,3.0758832E-2,1.322485E-2,2.4401644E-2,4.141645E-2,2.2593617E-2,-3.8346848E-3,3.6862824E-2,2.6182898E-3,3.043192E-2,4.3425555E-3,4.3338794E-2,1.8659974E-2],"split_indices":[6,4,7,7,7,1,8,8,1,8,1,1,0,7,0,1,1,8,8,3,1,0,7,5,0,2,0,0,0,0,0,0,0,0,0,0,0,0,0,0,0,0,0,0,0,0,0,0,0,0,0,0,0],"split_type":[0,0,0,0,0,0,0,0,0,0,0,0,0,0,0,0,0,0,0,0,0,0,0,0,0,0,0,0,0,0,0,0,0,0,0,0,0,0,0,0,0,0,0,0,0,0,0,0,0,0,0,0,0],"sum_hessian":[4.840088E3,4.4512935E3,3.8879456E2,3.7811147E3,6.7017865E2,1.0610749E2,2.8268707E2,2.4646199E3,1.3164949E3,2.8140033E2,3.8877832E2,3.1811586E1,7.4295906E1,5.3108906E1,2.2957816E2,1.2967839E3,1.167836E3,4.8709583E2,8.29399E2,1.3712265E2,1.4427768E2,2.6436627E2,1.2441204E2,3.0597162E1,1.2144244E0,7.255348E1,1.7424265E0,1.9838331E1,3.3270576E1,7.165724E2,5.802115E2,6.775791E2,4.9025696E2,2.7951904E2,2.0757677E2,3.7622855E2,4.5317047E2,6.529566E1,7.182698E1,5.8138176E1,8.61395E1,2.088064E2,5.5559875E1,1.2058181E1,1.1235386E2,2.6958649E1,3.6385124E0,6.993751E1,2.6159697E0,1.2304422E1,7.533909E0,3.0501678E1,2.768898E0],"tree_param":{"num_deleted":"0","num_feature":"9","num_nodes":"53","size_leaf_vector":"1"}},{"base_weights":[-3.4364604E-3,-1.1048317E-1,1.2398257E0,-2.6095673E-1,7.4161565E-1,9.265911E-1,1.3392689E0,-7.314418E-1,1.1689855E-2,3.5417867E-1,1.0199074E0,5.173565E-1,1.1229544E0,1.2259784E0,1.4118036E0,-9.716565E-1,-3.886034E-1,-3.6977267E-1,3.2231122E-1,9.727238E-3,7.347797E-1,9.020533E-1,1.4027277E0,-2.843408E-1,7.62117E-1,1.1615019E0,-4.6146433E-3,1.1127393E0,1.4125019E0,9.24111E-1,4.362774E-2,-3.3006612E-2,-1.5182406E-2,-2.0026708E-2,1.3426299E-3,-1.9942146E-2,-1.6107508E-3,-4.827783E-3,1.648984E-2,-9.84676E-3,1.5771259E-2,-7.4180136E-3,2.7590014E-2,3.0968133E-2,1.1577049E-2,9.620846E-3,4.2658914E-2,-2.4209678E-2,1.2911526E-2,4.658451E-3,3.1441893E-2,3.734341E-2,1.6002744E-2,3.4292743E-2,-7.0242565E-3,1.0575808E-2,4.300932E-2,4.071379E-3,3.7553906E-2],"categories":[],"categories_nodes":[],"categories_segments":[],"categories_sizes":[],"default_left":[0,0,0,0,0,0,0,0,0,0,0,0,0,0,0,0,0,0,0,0,0,0,0,0,0,0,0,0,0,0,0,0,0,0,0,0,0,0,0,0,0,0,0,0,0,0,0,0,0,0,0,0,0,0,0,0,0,0,0],"id":14,"left_children":[1,3,5,7,9,11,13,15,17,19,21,23,25,27,29,31,33,35,37,39,41,43,45,47,49,51,-1,53,55,57,-1,-1,-1,-1,-1,-1,-1,-1,-1,-1,-1,-1,-1,-1,-1,-1,-1,-1,-1,-1,-1,-1,-1,-1,-1,-1,-1,-1,-1],"loss_changes":[6.402404E2,5.6810925E2,1.0638367E1,4.8299973E2,7.134378E1,7.064705E0,6.2945557E-1,1.1339081E2,2.826956E2,3.6639637E1,1.6172546E1,6.63412E0,3.300949E0,9.5680237E-1,2.145172E0,4.8024292E1,6.9033554E1,9.979956E1,1.4455858E2,2.593679E1,2.4337112E1,1.9652802E1,1.4001312E0,3.4768033E0,4.2320337E0,2.5631256E0,0E0,3.5054855E0,4.2485046E-1,4.025093E0,0E0,0E0,0E0,0E0,0E0,0E0,0E0,0E0,0E0,0E0,0E0,0E0,0E0,0E0,0E0,0E0,0E0,0E0,0E0,0E0,0E0,0E0,0E0,0E0,0E0,0E0,0E0,0E0,0E0],"parents":[2147483647,0,0,1,1,2,2,3,3,4,4,5,5,6,6,7,7,8,8,9,9,10,10,11,11,12,12,13,13,14,14,15,15,16,16,17,17,18,18,19,19,20,20,21,21,22,22,23,23,24,24,25,25,27,27,28,28,29,29],"right_children":[2,4,6,8,10,12,14,16,18,20,22,24,26,28,30,32,34,36,38,40,42,44,46,48,50,52,-1,54,56,58,-1,-1,-1,-1,-1,-1,-1,-1,-1,-1,-1,-1,-1,-1,-1,-1,-1,-1,-1,-1,-1,-1,-1,-1,-1,-1,-1,-1,-1],"split_conditions":[-2.9956025E-1,-3.8980678E-1,-8.919987E-1,-4.3888718E-1,-3.0814064E-1,-5.297007E-1,-1.5278652E-1,3.3410048E-1,-1.3034976E-1,2.4466997E-2,1.2703053E0,-7.4961674E-1,1.6411141E0,5.663256E-1,-1.3688837E0,1.0029548E0,3.589339E-1,5.251152E-2,-5.863639E-1,3.732715E-1,-1.4953858E0,9.689973E-1,-1.571586E0,1.5722278E-1,-9.446293E-1,1.4011961E0,-4.6146433E-3,5.2762145E-1,-1.7065327E0,4.121521E-1,4.362774E-2,-3.3006612E-2,-1.5182406E-2,-2.0026708E-2,1.3426299E-3,-1.9942146E-2,-1.6107508E-3,-4.827783E-3,1.648984E-2,-9.84676E-3,1.5771259E-2,-7.4180136E-3,2.7590014E-2,3.0968133E-2,1.1577049E-2,9.620846E-3,4.2658914E-2,-2.4209678E-2,1.2911526E-2,4.658451E-3,3.1441893E-2,3.734341E-2,1.6002744E-2,3.4292743E-2,-7.0242565E-3,1.0575808E-2,4.300932E-2,4.071379E-3,3.7553906E-2],"split_indices":[6,4,7,7,7,1,1,8,8,8,7,8,0,8,8,1,1,1,1,1,7,0,3,2,5,1,0,8,2,1,0,0,0,0,0,0,0,0,0,0,0,0,0,0,0,0,0,0,0,0,0,0,0,0,0,0,0,0,0],"split_type":[0,0,0,0,0,0,0,0,0,0,0,0,0,0,0,0,0,0,0,0,0,0,0,0,0,0,0,0,0,0,0,0,0,0,0,0,0,0,0,0,0,0,0,0,0,0,0,0,0,0,0,0,0,0,0,0,0,0,0],"sum_hessian":[4.808657E3,4.428286E3,3.8037085E2,3.7642456E3,6.6404065E2,9.4144424E1,2.862264E2,1.3804417E3,2.383804E3,2.785361E2,3.8550455E2,3.1704582E1,6.243984E1,1.1871282E2,1.675136E2,8.1062866E2,5.698129E2,1.0698145E3,1.3139896E3,1.4675003E2,1.3178609E2,2.9732672E2,8.817783E1,7.377697E0,2.4326885E1,6.0697586E1,1.7422538E0,7.8201866E1,4.0510952E1,1.5237763E1,1.5227583E2,6.341514E2,1.7647728E2,3.4633545E2,2.2347751E2,5.528209E2,5.1699347E2,4.2050015E2,8.9348944E2,8.8892166E1,5.785786E1,2.0826542E1,1.1095955E2,2.3662871E2,6.069802E1,1.8488953E0,8.632894E1,4.186901E0,3.1907964E0,8.285799E0,1.6041086E1,5.272477E1,7.9728146E0,7.662638E1,1.5754824E0,1.137851E0,3.9373104E1,4.889056E0,1.0348707E1],"tree_param":{"num_deleted":"0","num_feature":"9","num_nodes":"59","size_leaf_vector":"1"}},{"base_weights":[1.4968357E-3,-1.0466678E-1,1.2114265E0,-2.5340548E-1,7.2871244E-1,9.9099153E-1,1.331828E0,-6.594956E-1,4.588759E-2,9.836316E-2,8.7572557E-1,1.0143273E0,-2.1360714E-2,1.1463403E0,1.4033891E0,-8.3689135E-1,-1.4874506E-1,-2.6975036E-1,3.8516736E-1,4.0971252E-1,-3.0988172E-1,5.810191E-1,1.0969884E0,6.801841E-1,1.156068E0,1.1793996E0,-7.016341E-3,8.0948836E-1,4.2469785E-2,-3.1641923E-2,-1.5901398E-2,-1.7451674E-2,4.3479623E-3,-2.1696154E-2,-1.466464E-3,2.8983164E-3,2.1173442E-2,7.7840104E-4,2.5139812E-2,-2.4115948E-2,1.2508546E-3,1.1171047E-2,3.169859E-2,2.17999E-2,3.7621662E-2,2.2259956E-2,-2.4559092E-2,3.580961E-2,2.0630683E-3,1.6448187E-2,3.64469E-2,-1.4720998E-3,3.1013856E-2],"categories":[],"categories_nodes":[],"categories_segments":[],"categories_sizes":[],"default_left":[0,0,0,0,0,0,0,0,0,0,0,0,0,0,0,0,0,0,0,0,0,0,0,0,0,0,0,0,0,0,0,0,0,0,0,0,0,0,0,0,0,0,0,0,0,0,0,0,0,0,0,0,0],"id":15,"left_children":[1,3,5,7,9,11,13,15,17,19,21,23,-1,25,27,29,31,33,35,37,39,41,43,45,47,49,-1,51,-1,-1,-1,-1,-1,-1,-1,-1,-1,-1,-1,-1,-1,-1,-1,-1,-1,-1,-1,-1,-1,-1,-1,-1,-1],"loss_changes":[6.17277E2,5.4781256E2,8.968506E0,4.5575543E2,6.1941345E1,6.3195343E0,1.6804504E0,1.4402911E2,2.3137244E2,1.6359854E1,3.4746185E1,5.813614E0,0E0,3.6727371E0,1.2463379E-1,7.835907E1,5.2390957E1,1.120725E2,9.626091E1,1.1957491E1,9.729055E0,2.2908943E1,1.7050812E1,4.6779556E0,3.8582E0,9.6642303E-1,0E0,1.1801705E0,0E0,0E0,0E0,0E0,0E0,0E0,0E0,0E0,0E0,0E0,0E0,0E0,0E0,0E0,0E0,0E0,0E0,0E0,0E0,0E0,0E0,0E0,0E0,0E0,0E0],"parents":[2147483647,0,0,1,1,2,2,3,3,4,4,5,5,6,6,7,7,8,8,9,9,10,10,11,11,13,13,14,14,15,15,16,16,17,17,18,18,19,19,20,20,21,21,22,22,23,23,24,24,25,25,27,27],"right_children":[2,4,6,8,10,12,14,16,18,20,22,24,-1,26,28,30,32,34,36,38,40,42,44,46,48,50,-1,52,-1,-1,-1,-1,-1,-1,-1,-1,-1,-1,-1,-1,-1,-1,-1,-1,-1,-1,-1,-1,-1,-1,-1,-1,-1],"split_conditions":[-2.9956025E-1,-3.8980678E-1,-4.7725242E-1,-2.4332136E-1,-1.0724677E0,1.7022156E0,-5.863639E-1,8.726859E-1,1.0187537E-1,1.7467745E-1,-2.0817493E-1,-6.719152E-1,-2.1360714E-2,-6.179242E-1,-1.6398131E0,3.15109E-1,-3.5888276E-1,-6.010624E-1,1.0420043E-1,2.4466997E-2,-5.0189084E-1,8.7231785E-1,-6.7220837E-1,-7.150159E-1,1.5737013E0,-1.4750638E0,-7.016341E-3,-7.9941046E-1,4.2469785E-2,-3.1641923E-2,-1.5901398E-2,-1.7451674E-2,4.3479623E-3,-2.1696154E-2,-1.466464E-3,2.8983164E-3,2.1173442E-2,7.7840104E-4,2.5139812E-2,-2.4115948E-2,1.2508546E-3,1.1171047E-2,3.169859E-2,2.17999E-2,3.7621662E-2,2.2259956E-2,-2.4559092E-2,3.580961E-2,2.0630683E-3,1.6448187E-2,3.64469E-2,-1.4720998E-3,3.1013856E-2],"split_indices":[6,4,7,7,7,0,1,8,8,0,1,1,0,1,8,1,1,1,1,8,1,7,8,1,2,0,0,5,0,0,0,0,0,0,0,0,0,0,0,0,0,0,0,0,0,0,0,0,0,0,0,0,0],"split_type":[0,0,0,0,0,0,0,0,0,0,0,0,0,0,0,0,0,0,0,0,0,0,0,0,0,0,0,0,0,0,0,0,0,0,0,0,0,0,0,0,0,0,0,0,0,0,0,0,0,0,0,0,0],"sum_hessian":[4.8035757E3,4.4169316E3,3.8664407E2,3.7485916E3,6.6833997E2,1.3984404E2,2.4680005E2,1.5900112E3,2.1585803E3,1.26710655E2,5.416293E2,1.3835263E2,1.4913994E0,7.344587E1,1.7335417E2,1.1796517E3,4.103595E2,1.1183575E3,1.0402228E3,7.188427E1,5.482638E1,2.3382156E2,3.0780774E2,4.2935097E1,9.541754E1,7.186992E1,1.57595E0,4.864777E0,1.684894E2,6.884562E2,4.9119556E2,1.6545023E2,2.4490927E2,3.6556265E2,7.527949E2,5.481668E2,4.9205597E2,3.84718E1,3.341247E1,2.2261457E1,3.2564926E1,1.6376091E2,7.0060646E1,9.334636E1,2.1446136E2,4.1719448E1,1.2156497E0,9.213481E1,3.2827263E0,4.702722E0,6.71672E1,1.1695268E0,3.69525E0],"tree_param":{"num_deleted":"0","num_feature":"9","num_nodes":"53","size_leaf_vector":"1"}},{"base_weights":[3.0583013E-3,-9.8794505E-2,1.2046825E0,-2.4343553E-1,7.099647E-1,1.0616169E0,1.3684331E0,-4.8478252E-1,2.4477915E-1,3.8902453E-1,1.0068974E0,7.7969927E-1,1.1977714E0,6.5228856E-1,4.1613135E-2,-7.059249E-1,-7.428597E-2,9.089186E-3,6.5329486E-1,3.8500633E-2,7.79467E-1,8.2511E-1,1.2368996E0,9.6151185E-1,1.1110829E-1,-1.4315376E-3,1.2089878E0,3.1192327E-2,2.1323255E-1,-2.8813805E-2,-1.2027343E-2,-1.3850343E-2,5.0492943E-3,-1.3288024E-2,8.577592E-3,3.144963E-2,1.3590489E-2,-5.414164E-3,2.0011468E-2,1.2361946E-2,3.292168E-2,1.9784283E-2,3.5644475E-2,3.3073626E-2,4.176699E-2,-2.427691E-2,3.0530186E-2,-1.0779248E-2,3.3124905E-2,2.8548483E-2,3.9242797E-2,-1.7511256E-2,2.8015265E-2],"categories":[],"categories_nodes":[],"categories_segments":[],"categories_sizes":[],"default_left":[0,0,0,0,0,0,0,0,0,0,0,0,0,0,0,0,0,0,0,0,0,0,0,0,0,0,0,0,0,0,0,0,0,0,0,0,0,0,0,0,0,0,0,0,0,0,0,0,0,0,0,0,0],"id":16,"left_children":[1,3,5,7,9,11,13,15,17,19,21,23,25,27,-1,29,31,33,35,37,39,41,43,45,47,-1,49,-1,51,-1,-1,-1,-1,-1,-1,-1,-1,-1,-1,-1,-1,-1,-1,-1,-1,-1,-1,-1,-1,-1,-1,-1,-1],"loss_changes":[5.862382E2,5.1672156E2,7.315674E0,4.4157062E2,6.347354E1,6.904907E0,1.3825989E0,2.2757227E2,1.1939103E2,4.42704E1,1.35078125E1,8.326088E0,1.9554596E0,8.388581E-1,0E0,1.26121765E2,8.268674E1,9.865522E1,3.5417847E1,2.374097E1,1.7427818E1,1.1067322E1,1.6267242E0,6.234539E0,7.853566E0,0E0,2.1902313E0,0E0,2.9459329E0,0E0,0E0,0E0,0E0,0E0,0E0,0E0,0E0,0E0,0E0,0E0,0E0,0E0,0E0,0E0,0E0,0E0,0E0,0E0,0E0,0E0,0E0,0E0,0E0],"parents":[2147483647,0,0,1,1,2,2,3,3,4,4,5,5,6,6,7,7,8,8,9,9,10,10,11,11,12,12,13,13,15,15,16,16,17,17,18,18,19,19,20,20,21,21,22,22,23,23,24,24,26,26,28,28],"right_children":[2,4,6,8,10,12,14,16,18,20,22,24,26,28,-1,30,32,34,36,38,40,42,44,46,48,-1,50,-1,52,-1,-1,-1,-1,-1,-1,-1,-1,-1,-1,-1,-1,-1,-1,-1,-1,-1,-1,-1,-1,-1,-1,-1,-1],"split_conditions":[-2.9956025E-1,-3.8980678E-1,1.8167415E-1,5.96836E-1,-1.0322589E-1,-4.9025562E-1,-1.6292416E0,5.663256E-1,4.8891723E-1,6.3171186E-2,2.1272376E-1,1.0300988E0,-1.7224609E0,-6.5408605E-1,4.1613135E-2,1.8562879E-1,-3.7188306E-1,-3.6230665E-1,-4.9743932E-1,8.3808297E-1,-6.6362405E-3,1.1590877E0,9.1476893E-1,-1.7172214E0,7.047046E-1,-1.4315376E-3,-7.012937E-1,3.1192327E-2,2.6772162E-1,-2.8813805E-2,-1.2027343E-2,-1.3850343E-2,5.0492943E-3,-1.3288024E-2,8.577592E-3,3.144963E-2,1.3590489E-2,-5.414164E-3,2.0011468E-2,1.2361946E-2,3.292168E-2,1.9784283E-2,3.5644475E-2,3.3073626E-2,4.176699E-2,-2.427691E-2,3.0530186E-2,-1.0779248E-2,3.3124905E-2,2.8548483E-2,3.9242797E-2,-1.7511256E-2,2.8015265E-2],"split_indices":[6,4,7,7,7,8,1,8,8,8,1,0,7,3,0,1,1,3,0,1,3,7,7,8,3,0,1,0,3,0,0,0,0,0,0,0,0,0,0,0,0,0,0,0,0,0,0,0,0,0,0,0,0],"split_type":[0,0,0,0,0,0,0,0,0,0,0,0,0,0,0,0,0,0,0,0,0,0,0,0,0,0,0,0,0,0,0,0,0,0,0,0,0,0,0,0,0,0,0,0,0,0,0,0,0,0,0,0,0],"sum_hessian":[4.787994E3,4.41471E3,3.7328455E2,3.745544E3,6.6916583E2,2.0321916E2,1.7006537E2,2.506482E3,1.2390621E3,3.2269287E2,3.4647296E2,6.837348E1,1.3484569E2,5.2344136E0,1.6483096E2,1.6284725E3,8.7800934E2,7.8638544E2,4.5267676E2,1.7061765E2,1.5207521E2,1.9608229E2,1.5039066E2,5.341108E1,1.4962404E1,1.1744851E0,1.3367119E2,2.0538278E0,3.180586E0,8.865191E2,7.419534E2,3.377561E2,5.402532E2,2.9845407E2,4.8793137E2,1.5086963E2,3.0180713E2,1.2706411E2,4.3553543E1,7.161294E1,8.046227E1,1.365836E2,5.94987E1,8.495611E1,6.543455E1,1.2297058E0,5.2181374E1,1.0585951E1,4.376453E0,4.010993E1,9.356127E1,1.6005145E0,1.5800714E0],"tree_param":{"num_deleted":"0","num_feature":"9","num_nodes":"53","size_leaf_vector":"1"}},{"base_weights":[2.8785074E-3,-9.785563E-2,1.1741674E0,-2.3888953E-1,6.987891E-1,8.546719E-1,1.2730757E0,-6.871448E-1,1.4462004E-2,8.91939E-2,8.433816E-1,6.13478E-1,1.2680203E0,1.0084105E0,1.3113714E0,-8.4187454E-1,-2.3776746E-1,-2.882284E-1,3.3341768E-1,-2.2348443E-1,5.276769E-1,5.3817886E-1,1.0369E0,9.173103E-3,8.770103E-1,1.3321185E0,-6.2011685E-3,3.9083612E-1,1.1966308E0,1.1577989E0,4.116824E-2,-2.8845483E-2,-1.1998626E-2,-1.7037947E-2,3.72698E-3,-1.7548973E-2,-1.1442576E-5,-3.1237735E-3,1.6257647E-2,-1.4205907E-2,1.2777786E-2,3.419095E-3,2.7123898E-2,4.9412586E-3,2.4277082E-2,2.3663068E-2,3.705732E-2,-1.4077241E-2,1.3124584E-2,3.0535275E-2,4.3742927E-3,4.361051E-3,4.1494954E-2,-5.1101157E-3,2.7803514E-2,4.0961742E-2,7.025726E-3,1.5371377E-2,3.6680203E-2],"categories":[],"categories_nodes":[],"categories_segments":[],"categories_sizes":[],"default_left":[0,0,0,0,0,0,0,0,0,0,0,0,0,0,0,0,0,0,0,0,0,0,0,0,0,0,0,0,0,0,0,0,0,0,0,0,0,0,0,0,0,0,0,0,0,0,0,0,0,0,0,0,0,0,0,0,0,0,0],"id":17,"left_children":[1,3,5,7,9,11,13,15,17,19,21,23,25,27,29,31,33,35,37,39,41,43,45,47,49,51,-1,53,55,57,-1,-1,-1,-1,-1,-1,-1,-1,-1,-1,-1,-1,-1,-1,-1,-1,-1,-1,-1,-1,-1,-1,-1,-1,-1,-1,-1,-1,-1],"loss_changes":[5.6170197E2,4.926884E2,1.0825623E1,4.2305188E2,5.8062927E1,8.410622E0,1.574707E0,9.333093E1,2.2996155E2,1.7608925E1,3.0923096E1,9.569448E0,3.397091E0,4.2353973E0,7.156067E-1,5.2499268E1,4.141549E1,1.0438919E2,1.0586218E2,1.2408439E1,8.213804E0,2.1014519E1,1.5026123E1,4.154529E0,4.1628914E0,1.72435E0,0E0,3.4469295E0,4.6380577E0,2.5708847E0,0E0,0E0,0E0,0E0,0E0,0E0,0E0,0E0,0E0,0E0,0E0,0E0,0E0,0E0,0E0,0E0,0E0,0E0,0E0,0E0,0E0,0E0,0E0,0E0,0E0,0E0,0E0,0E0,0E0],"parents":[2147483647,0,0,1,1,2,2,3,3,4,4,5,5,6,6,7,7,8,8,9,9,10,10,11,11,12,12,13,13,14,14,15,15,16,16,17,17,18,18,19,19,20,20,21,21,22,22,23,23,24,24,25,25,27,27,28,28,29,29],"right_children":[2,4,6,8,10,12,14,16,18,20,22,24,26,28,30,32,34,36,38,40,42,44,46,48,50,52,-1,54,56,58,-1,-1,-1,-1,-1,-1,-1,-1,-1,-1,-1,-1,-1,-1,-1,-1,-1,-1,-1,-1,-1,-1,-1,-1,-1,-1,-1,-1,-1],"split_conditions":[-2.9956025E-1,-3.8980678E-1,-9.3071026E-1,-4.5100614E-1,-1.0724677E0,4.6885344E-1,-1.214067E0,8.726859E-1,1.0187537E-1,1.7364185E-1,-3.6257488E-1,-6.719152E-1,1.6411141E0,-7.9941046E-1,-5.863639E-1,1.0029548E0,8.073323E-2,-2.684614E-2,-5.863639E-1,8.4697276E-1,-6.6362405E-3,-1.489044E-1,-1.9567667E-1,1.5722278E-1,1.0300988E0,-1.5255047E0,-6.2011685E-3,2.6772162E-1,1.2745049E0,-1.3528607E0,4.116824E-2,-2.8845483E-2,-1.1998626E-2,-1.7037947E-2,3.72698E-3,-1.7548973E-2,-1.1442576E-5,-3.1237735E-3,1.6257647E-2,-1.4205907E-2,1.2777786E-2,3.419095E-3,2.7123898E-2,4.9412586E-3,2.4277082E-2,2.3663068E-2,3.705732E-2,-1.4077241E-2,1.3124584E-2,3.0535275E-2,4.3742927E-3,4.361051E-3,4.1494954E-2,-5.1101157E-3,2.7803514E-2,4.0961742E-2,7.025726E-3,1.5371377E-2,3.6680203E-2],"split_indices":[6,4,7,7,7,3,8,8,8,1,8,1,0,5,1,1,1,1,1,3,3,3,1,2,0,5,0,3,0,0,0,0,0,0,0,0,0,0,0,0,0,0,0,0,0,0,0,0,0,0,0,0,0,0,0,0,0,0,0],"split_type":[0,0,0,0,0,0,0,0,0,0,0,0,0,0,0,0,0,0,0,0,0,0,0,0,0,0,0,0,0,0,0,0,0,0,0,0,0,0,0,0,0,0,0,0,0,0,0,0,0,0,0,0,0,0,0,0,0,0,0],"sum_hessian":[4.758665E3,4.38266E3,3.7600464E2,3.72407E3,6.5859015E2,9.116442E1,2.848402E2,1.3441504E3,2.3799197E3,1.2657456E2,5.320156E2,5.913979E1,3.202463E1,3.9460148E1,2.4538008E2,9.9922394E2,3.449264E2,1.2211444E3,1.1587753E3,7.417287E1,5.240169E1,2.0790482E2,3.241108E2,1.8272953E1,4.0866837E1,3.0783346E1,1.2412841E0,9.935858E0,2.9524292E1,7.536114E1,1.7001894E2,7.8541254E2,2.1381143E2,1.800981E2,1.648283E2,6.007783E2,6.203661E2,3.7414215E2,7.846331E2,5.3748608E1,2.0424263E1,2.558621E1,2.6815483E1,8.811085E1,1.1979396E2,1.4619528E2,1.7791551E2,8.5865E0,9.686453E0,3.393819E1,6.928649E0,1.4281828E0,2.9355164E1,5.186949E0,4.748909E0,2.476343E1,4.760862E0,7.6957884E0,6.7665344E1],"tree_param":{"num_deleted":"0","num_feature":"9","num_nodes":"59","size_leaf_vector":"1"}},{"base_weights":[5.4804987E-4,-9.689547E-2,1.1577114E0,-2.3390071E-1,6.7403936E-1,8.5522646E-1,1.2562497E0,-4.713175E-1,2.1941423E-1,3.0753583E-1,9.1042817E-1,8.8787806E-1,-2.1031424E-2,1.0233501E0,1.3077632E0,-8.193057E-1,-2.3200184E-1,-1.3243043E-1,4.7753426E-1,-9.176861E-2,6.4893264E-1,6.687675E-1,1.1299543E0,5.473523E-1,1.0634371E0,6.1794984E-1,1.2682437E0,1.1810689E0,4.1651744E-2,-3.126304E-2,-1.6731303E-2,-1.4001928E-2,4.243771E-3,-2.0291572E-2,2.9187584E-3,2.584759E-3,2.1003885E-2,-2.2284435E-2,6.629231E-3,1.027493E-2,2.981682E-2,1.3609308E-2,3.0437954E-2,1.3580564E-2,3.5400447E-2,-1.3485913E-3,2.1990329E-2,1.3944552E-3,3.325001E-2,2.7558558E-2,1.9803834E-3,1.651584E-2,4.0236004E-2,9.234442E-3,3.5894908E-2],"categories":[],"categories_nodes":[],"categories_segments":[],"categories_sizes":[],"default_left":[0,0,0,0,0,0,0,0,0,0,0,0,0,0,0,0,0,0,0,0,0,0,0,0,0,0,0,0,0,0,0,0,0,0,0,0,0,0,0,0,0,0,0,0,0,0,0,0,0,0,0,0,0,0,0],"id":18,"left_children":[1,3,5,7,9,11,13,15,17,19,21,23,-1,25,27,29,31,33,35,37,39,41,43,45,47,49,51,53,-1,-1,-1,-1,-1,-1,-1,-1,-1,-1,-1,-1,-1,-1,-1,-1,-1,-1,-1,-1,-1,-1,-1,-1,-1,-1,-1],"loss_changes":[5.364776E2,4.6365402E2,9.939941E0,4.0120087E2,5.7111206E1,5.3955994E0,1.9801636E0,2.0352405E2,1.1646094E2,3.567257E1,2.058075E1,4.944412E0,0E0,4.6464996E0,6.371765E-1,5.7489685E1,1.2724551E2,6.793641E1,6.436481E1,2.4859156E1,1.4559956E1,1.3964638E1,6.5618286E0,3.7176523E0,2.6850128E0,3.6812363E0,9.9731827E-1,8.898163E-1,0E0,0E0,0E0,0E0,0E0,0E0,0E0,0E0,0E0,0E0,0E0,0E0,0E0,0E0,0E0,0E0,0E0,0E0,0E0,0E0,0E0,0E0,0E0,0E0,0E0,0E0,0E0],"parents":[2147483647,0,0,1,1,2,2,3,3,4,4,5,5,6,6,7,7,8,8,9,9,10,10,11,11,13,13,14,14,15,15,16,16,17,17,18,18,19,19,20,20,21,21,22,22,23,23,24,24,25,25,26,26,27,27],"right_children":[2,4,6,8,10,12,14,16,18,20,22,24,-1,26,28,30,32,34,36,38,40,42,44,46,48,50,52,54,-1,-1,-1,-1,-1,-1,-1,-1,-1,-1,-1,-1,-1,-1,-1,-1,-1,-1,-1,-1,-1,-1,-1,-1,-1,-1,-1],"split_conditions":[-2.9956025E-1,-3.8980678E-1,-8.919987E-1,5.5777824E-1,-4.3888718E-1,1.7022156E0,-1.0592502E0,-2.472189E-1,-2.588435E-1,-6.6362405E-3,-5.606503E-2,-5.1511556E-1,-2.1031424E-2,1.8167415E-1,-1.5278652E-1,1.8562879E-1,4.2495114E-1,-7.4961674E-1,-4.3344074E-1,-6.719152E-1,6.3171186E-2,4.1150886E-1,-1.4849963E0,-1.2188197E0,-1.5255047E0,5.412866E-1,-1.4539294E0,-1.7065327E0,4.1651744E-2,-3.126304E-2,-1.6731303E-2,-1.4001928E-2,4.243771E-3,-2.0291572E-2,2.9187584E-3,2.584759E-3,2.1003885E-2,-2.2284435E-2,6.629231E-3,1.027493E-2,2.981682E-2,1.3609308E-2,3.0437954E-2,1.3580564E-2,3.5400447E-2,-1.3485913E-3,2.1990329E-2,1.3944552E-3,3.325001E-2,2.7558558E-2,1.9803834E-3,1.651584E-2,4.0236004E-2,9.234442E-3,3.5894908E-2],"split_indices":[6,4,7,7,7,0,8,8,1,3,1,1,0,7,1,1,1,8,3,1,8,8,8,5,5,0,5,2,0,0,0,0,0,0,0,0,0,0,0,0,0,0,0,0,0,0,0,0,0,0,0,0,0,0,0],"split_type":[0,0,0,0,0,0,0,0,0,0,0,0,0,0,0,0,0,0,0,0,0,0,0,0,0,0,0,0,0,0,0,0,0,0,0,0,0,0,0,0,0,0,0,0,0,0,0,0,0,0,0,0,0,0,0],"sum_hessian":[4.7557803E3,4.387251E3,3.6852954E2,3.7258203E3,6.614306E2,9.293231E1,2.7559723E2,2.4451636E3,1.2806569E3,2.6024332E2,4.011873E2,9.144326E1,1.4890549E0,5.369601E1,2.2190123E2,9.9537213E2,1.4497914E3,5.421443E2,7.385126E2,1.20285835E2,1.3995747E2,1.928923E2,2.0829497E2,3.250745E1,5.8935806E1,2.1548178E1,3.2147835E1,9.238369E1,1.2951753E2,5.3593976E2,4.5943237E2,8.9009534E2,5.59696E2,1.6039755E2,3.817467E2,2.6825076E2,4.702618E2,3.8585712E1,8.170013E1,7.5172935E1,6.478454E1,1.2034409E2,7.254822E1,1.5027705E1,1.9326726E2,7.9386663E0,2.4568783E1,2.577945E0,5.6357864E1,1.3519209E1,8.028969E0,3.7548785E0,2.8392956E1,1.9675627E0,9.041613E1],"tree_param":{"num_deleted":"0","num_feature":"9","num_nodes":"55","size_leaf_vector":"1"}},{"base_weights":[-3.1141643E-3,-9.641851E-2,1.1210996E0,-2.2805154E-1,6.610643E-1,8.0045134E-1,1.2306241E0,-4.9154258E-1,1.7526105E-1,8.916872E-2,8.0019534E-1,3.7829357E-1,9.88052E-1,9.905164E-1,1.2831963E0,-7.009885E-1,-1.01869464E-1,-5.0320867E-2,5.6042016E-1,-2.5045273E-1,5.41853E-1,5.1605207E-1,9.8208135E-1,1.5323886E-1,1.08961E0,3.6234504E-1,1.0693723E0,5.8097005E-1,1.2208935E0,8.7760544E-1,3.924027E-2,-2.8005784E-2,-1.1296515E-2,-1.3950556E-2,4.63719E-3,-1.6093388E-2,5.11723E-3,2.5167616E-2,7.3309434E-3,-1.7761772E-2,3.7776222E-3,-3.2367684E-2,1.8427402E-2,6.6059306E-3,2.5616247E-2,2.2821708E-2,3.5653558E-2,-8.234157E-3,1.4451843E-2,3.866556E-2,7.6958565E-3,2.7389238E-2,-1.7197348E-2,3.450434E-2,1.1418468E-2,2.5837436E-2,1.6971269E-3,3.7578347E-3,3.8138837E-2,3.0348329E-2,-2.7785727E-3],"categories":[],"categories_nodes":[],"categories_segments":[],"categories_sizes":[],"default_left":[0,0,0,0,0,0,0,0,0,0,0,0,0,0,0,0,0,0,0,0,0,0,0,0,0,0,0,0,0,0,0,0,0,0,0,0,0,0,0,0,0,0,0,0,0,0,0,0,0,0,0,0,0,0,0,0,0,0,0,0,0],"id":19,"left_children":[1,3,5,7,9,11,13,15,17,19,21,23,25,27,29,31,33,35,37,39,41,43,45,47,49,51,53,55,57,59,-1,-1,-1,-1,-1,-1,-1,-1,-1,-1,-1,-1,-1,-1,-1,-1,-1,-1,-1,-1,-1,-1,-1,-1,-1,-1,-1,-1,-1,-1,-1],"loss_changes":[4.9591666E2,4.3542813E2,1.1739044E1,3.9539572E2,5.1374237E1,7.158497E0,2.114502E0,1.8358087E2,1.2780727E2,1.9759457E1,2.6363342E1,4.776727E0,2.931408E0,4.2497787E0,1.0323792E0,1.10052795E2,7.3439316E1,9.978399E1,4.7615875E1,9.538944E0,7.1195583E0,2.030347E1,1.3526398E1,3.591711E0,8.7420464E-1,5.1673694E0,2.7450638E0,3.0128193E0,1.648159E0,2.112646E0,0E0,0E0,0E0,0E0,0E0,0E0,0E0,0E0,0E0,0E0,0E0,0E0,0E0,0E0,0E0,0E0,0E0,0E0,0E0,0E0,0E0,0E0,0E0,0E0,0E0,0E0,0E0,0E0,0E0,0E0,0E0],"parents":[2147483647,0,0,1,1,2,2,3,3,4,4,5,5,6,6,7,7,8,8,9,9,10,10,11,11,12,12,13,13,14,14,15,15,16,16,17,17,18,18,19,19,20,20,21,21,22,22,23,23,24,24,25,25,26,26,27,27,28,28,29,29],"right_children":[2,4,6,8,10,12,14,16,18,20,22,24,26,28,30,32,34,36,38,40,42,44,46,48,50,52,54,56,58,60,-1,-1,-1,-1,-1,-1,-1,-1,-1,-1,-1,-1,-1,-1,-1,-1,-1,-1,-1,-1,-1,-1,-1,-1,-1,-1,-1,-1,-1,-1,-1],"split_conditions":[-2.9956025E-1,-3.8980678E-1,-8.919987E-1,3.8222605E-1,-1.0724677E0,-6.719152E-1,-1.0592502E0,5.663256E-1,4.8891723E-1,1.7364185E-1,-3.6257488E-1,9.7796124E-1,-1.3212157E0,1.8167415E-1,-1.51151E0,3.15109E-1,-2.849552E-1,-6.3228494E-1,1.7467745E-1,6.3171186E-2,-1.6127481E0,3.9164424E-1,-4.0262908E-2,-3.044307E-1,1.5583136E0,7.245912E-1,1.4011961E0,5.412866E-1,-1.6167873E0,-1.5350235E0,3.924027E-2,-2.8005784E-2,-1.1296515E-2,-1.3950556E-2,4.63719E-3,-1.6093388E-2,5.11723E-3,2.5167616E-2,7.3309434E-3,-1.7761772E-2,3.7776222E-3,-3.2367684E-2,1.8427402E-2,6.6059306E-3,2.5616247E-2,2.2821708E-2,3.5653558E-2,-8.234157E-3,1.4451843E-2,3.866556E-2,7.6958565E-3,2.7389238E-2,-1.7197348E-2,3.450434E-2,1.1418468E-2,2.5837436E-2,1.6971269E-3,3.7578347E-3,3.8138837E-2,3.0348329E-2,-2.7785727E-3],"split_indices":[6,4,7,7,7,1,8,8,8,1,8,3,2,7,1,1,1,1,0,8,2,7,1,8,3,0,1,0,1,1,0,0,0,0,0,0,0,0,0,0,0,0,0,0,0,0,0,0,0,0,0,0,0,0,0,0,0,0,0,0,0],"split_type":[0,0,0,0,0,0,0,0,0,0,0,0,0,0,0,0,0,0,0,0,0,0,0,0,0,0,0,0,0,0,0,0,0,0,0,0,0,0,0,0,0,0,0,0,0,0,0,0,0,0,0,0,0,0,0,0,0,0,0,0,0],"sum_hessian":[4.7257573E3,4.364444E3,3.6131363E2,3.718886E3,6.455577E2,9.410796E1,2.6720566E2,2.2492158E3,1.4696702E3,1.2664137E2,5.189163E2,2.9881681E1,6.422628E1,5.1560432E1,2.1564523E2,1.4623933E3,7.868225E2,9.2738434E2,5.4228577E2,7.2611855E1,5.402952E1,2.0402486E2,3.1489145E2,2.362299E1,6.258692E0,8.014635E0,5.6211643E1,1.983001E1,3.1730425E1,1.4528548E1,2.0111668E2,8.507497E2,6.116437E2,3.2532098E2,4.6150156E2,2.8929736E2,6.38087E2,2.873901E2,2.5489568E2,3.7763584E1,3.4848274E1,1.7156396E0,5.2313877E1,1.09649315E2,9.4375534E1,1.5418997E2,1.6070148E2,1.0333134E1,1.3289856E1,4.609243E0,1.6494489E0,5.0605097E0,2.954126E0,4.9711903E1,6.499739E0,1.2504386E1,7.3256245E0,1.5487412E0,3.0181683E1,1.2727935E1,1.8006142E0],"tree_param":{"num_deleted":"0","num_feature":"9","num_nodes":"61","size_leaf_vector":"1"}},{"base_weights":[-3.2572194E-3,-9.6593596E-2,1.11472E0,-2.2705612E-1,6.477624E-1,8.0913883E-1,1.2168573E0,-6.384076E-1,1.9724654E-2,3.572554E-1,9.264376E-1,6.052632E-1,1.163785E0,9.4075555E-1,1.2594415E0,-8.5194033E-1,-3.2905418E-1,-3.7730753E-1,2.3351978E-1,-1.6797622E-1,5.83893E-1,7.809252E-1,1.2041776E0,1.14685334E-1,8.235501E-1,1.2232033E0,-6.0915663E-3,5.31211E-1,1.1784413E0,1.1454973E0,4.004691E-2,-3.0859804E-2,-1.7133897E-2,-1.7193856E-2,1.3184932E-3,-1.6597336E-2,1.5524408E-3,-6.201624E-3,1.32052265E-2,-1.9064395E-2,4.4029835E-3,-4.6662265E-3,2.1739414E-2,1.4304252E-2,3.045963E-2,3.9113473E-2,2.6414378E-2,8.491409E-3,-2.3701284E-2,-1.0752564E-3,2.8270971E-2,3.8930815E-2,1.0698181E-2,2.5410209E-2,1.109667E-3,7.858423E-3,3.83321E-2,3.0096093E-2,3.9954744E-2],"categories":[],"categories_nodes":[],"categories_segments":[],"categories_sizes":[],"default_left":[0,0,0,0,0,0,0,0,0,0,0,0,0,0,0,0,0,0,0,0,0,0,0,0,0,0,0,0,0,0,0,0,0,0,0,0,0,0,0,0,0,0,0,0,0,0,0,0,0,0,0,0,0,0,0,0,0,0,0],"id":20,"left_children":[1,3,5,7,9,11,13,15,17,19,21,23,25,27,29,31,33,35,37,39,41,43,45,47,49,51,-1,53,55,57,-1,-1,-1,-1,-1,-1,-1,-1,-1,-1,-1,-1,-1,-1,-1,-1,-1,-1,-1,-1,-1,-1,-1,-1,-1,-1,-1,-1,-1],"loss_changes":[4.9083063E2,4.2173416E2,1.0327759E1,3.7506763E2,5.2103638E1,6.0762863E0,1.9857178E0,9.123578E1,1.9618758E2,3.8039715E1,1.2394287E1,6.505493E0,2.9405556E0,3.2663155E0,4.5419312E-1,4.005597E1,5.1681107E1,6.1095848E1,1.3676114E2,1.4344728E1,2.3310028E1,1.5152451E1,2.4498749E0,3.2914646E0,4.372507E0,1.5971375E0,0E0,2.5446439E0,1.8931503E0,1.2873688E0,0E0,0E0,0E0,0E0,0E0,0E0,0E0,0E0,0E0,0E0,0E0,0E0,0E0,0E0,0E0,0E0,0E0,0E0,0E0,0E0,0E0,0E0,0E0,0E0,0E0,0E0,0E0,0E0,0E0],"parents":[2147483647,0,0,1,1,2,2,3,3,4,4,5,5,6,6,7,7,8,8,9,9,10,10,11,11,12,12,13,13,14,14,15,15,16,16,17,17,18,18,19,19,20,20,21,21,22,22,23,23,24,24,25,25,27,27,28,28,29,29],"right_children":[2,4,6,8,10,12,14,16,18,20,22,24,26,28,30,32,34,36,38,40,42,44,46,48,50,52,-1,54,56,58,-1,-1,-1,-1,-1,-1,-1,-1,-1,-1,-1,-1,-1,-1,-1,-1,-1,-1,-1,-1,-1,-1,-1,-1,-1,-1,-1,-1,-1],"split_conditions":[-2.9956025E-1,-3.8980678E-1,-8.919987E-1,-3.9837512E-1,-1.0322589E-1,4.6885344E-1,-1.214067E0,3.7280467E-1,-4.9025562E-1,-7.109126E-1,5.286945E-1,-6.719152E-1,1.6411141E0,1.3756105E-1,-1.5278652E-1,3.8957906E-1,3.589339E-1,7.1994185E-1,-6.010624E-1,-2.9117256E-1,-1.4507186E0,-2.472189E-1,7.856927E-1,1.3788722E0,-1.3212157E0,1.4403775E0,-6.0915663E-3,5.412866E-1,-1.4539294E0,5.663256E-1,4.004691E-2,-3.0859804E-2,-1.7133897E-2,-1.7193856E-2,1.3184932E-3,-1.6597336E-2,1.5524408E-3,-6.201624E-3,1.32052265E-2,-1.9064395E-2,4.4029835E-3,-4.6662265E-3,2.1739414E-2,1.4304252E-2,3.045963E-2,3.9113473E-2,2.6414378E-2,8.491409E-3,-2.3701284E-2,-1.0752564E-3,2.8270971E-2,3.8930815E-2,1.0698181E-2,2.5410209E-2,1.109667E-3,7.858423E-3,3.83321E-2,3.0096093E-2,3.9954744E-2],"split_indices":[6,4,7,7,7,3,8,8,8,8,1,1,0,7,1,3,1,1,1,3,7,8,0,5,2,1,0,0,5,8,0,0,0,0,0,0,0,0,0,0,0,0,0,0,0,0,0,0,0,0,0,0,0,0,0,0,0,0,0],"split_type":[0,0,0,0,0,0,0,0,0,0,0,0,0,0,0,0,0,0,0,0,0,0,0,0,0,0,0,0,0,0,0,0,0,0,0,0,0,0,0,0,0,0,0,0,0,0,0,0,0,0,0,0,0,0,0,0,0,0,0],"sum_hessian":[4.701756E3,4.340311E3,3.614452E2,3.6936274E3,6.466834E2,9.278049E1,2.686647E2,1.3844097E3,2.3092178E3,3.1773755E2,3.2894583E2,6.063174E1,3.214875E1,3.898568E1,2.2967903E2,8.18016E2,5.663937E2,8.0797955E2,1.5012382E3,9.585436E1,2.218832E2,2.1835689E2,1.10588936E2,1.9140593E1,4.149115E1,3.0910128E1,1.2386223E0,1.5504894E1,2.3480787E1,9.7949E1,1.3173004E2,5.00425E2,3.17591E2,3.420424E2,2.2435126E2,5.7280695E2,2.3517259E2,4.7957938E2,1.0216589E3,3.8157673E1,5.7696693E1,3.546537E1,1.8641783E2,9.636383E1,1.2199306E2,8.225163E1,2.8337305E1,1.671688E1,2.4237113E0,5.124442E0,3.6366707E1,2.8005396E1,2.9047306E0,9.024586E0,6.480309E0,2.6509254E0,2.082986E1,5.915655E1,3.8792446E1],"tree_param":{"num_deleted":"0","num_feature":"9","num_nodes":"59","size_leaf_vector":"1"}},{"base_weights":[1.11530935E-4,-8.916097E-2,1.101077E0,-4.7329825E-1,1.490575E-1,8.7862486E-1,1.2258637E0,-6.2243336E-1,3.1393895E-1,3.392974E-2,8.528552E-1,5.384472E-1,1.0272537E0,7.9484177E-1,1.2524223E0,-8.0250365E-1,-2.7029508E-1,1.1372371E-2,7.3860407E-1,-3.6376578E-1,2.3788956E-1,9.625032E-1,4.2822754E-1,6.211891E-1,-5.801406E-1,1.0684205E0,-1.462474E-1,9.3737257E-1,-1.2504317E-2,1.1512036E0,4.0738203E-2,-3.147871E-2,-1.7448734E-2,-1.582836E-2,3.4385293E-3,-1.1681382E-2,1.2681233E-2,3.9498964E-3,2.6273765E-2,-2.1476943E-2,-4.5505296E-3,-5.4932516E-3,1.3183894E-2,2.2530116E-2,3.405358E-2,6.2727868E-3,3.531382E-2,1.2565295E-2,3.2811675E-2,-2.684732E-2,-2.1848E-5,2.4240078E-2,3.5647146E-2,-2.434252E-2,1.5710153E-2,3.2879263E-2,-5.9904754E-3,2.7032638E-2,3.8159225E-2],"categories":[],"categories_nodes":[],"categories_segments":[],"categories_sizes":[],"default_left":[0,0,0,0,0,0,0,0,0,0,0,0,0,0,0,0,0,0,0,0,0,0,0,0,0,0,0,0,0,0,0,0,0,0,0,0,0,0,0,0,0,0,0,0,0,0,0,0,0,0,0,0,0,0,0,0,0,0,0],"id":21,"left_children":[1,3,5,7,9,11,13,15,17,19,21,23,25,27,29,31,33,35,37,39,41,43,45,47,49,51,53,55,-1,57,-1,-1,-1,-1,-1,-1,-1,-1,-1,-1,-1,-1,-1,-1,-1,-1,-1,-1,-1,-1,-1,-1,-1,-1,-1,-1,-1,-1,-1],"loss_changes":[4.60569E2,3.9671854E2,8.679413E0,1.9501303E2,2.1681253E2,6.0114822E0,1.5530701E0,8.826593E1,3.403497E1,1.8672879E2,1.7102905E1,4.208827E0,4.468178E0,3.0949764E0,6.5792847E-1,4.969037E1,4.6972027E1,2.5836134E1,9.061985E0,5.8174156E1,1.2920352E2,1.0033569E1,1.2719402E1,3.2899761E0,6.159725E-1,1.7343216E0,2.1648607E0,2.801074E0,0E0,2.258667E0,0E0,0E0,0E0,0E0,0E0,0E0,0E0,0E0,0E0,0E0,0E0,0E0,0E0,0E0,0E0,0E0,0E0,0E0,0E0,0E0,0E0,0E0,0E0,0E0,0E0,0E0,0E0,0E0,0E0],"parents":[2147483647,0,0,1,1,2,2,3,3,4,4,5,5,6,6,7,7,8,8,9,9,10,10,11,11,12,12,13,13,14,14,15,15,16,16,17,17,18,18,19,19,20,20,21,21,22,22,23,23,24,24,25,25,26,26,27,27,29,29],"right_children":[2,4,6,8,10,12,14,16,18,20,22,24,26,28,30,32,34,36,38,40,42,44,46,48,50,52,54,56,-1,58,-1,-1,-1,-1,-1,-1,-1,-1,-1,-1,-1,-1,-1,-1,-1,-1,-1,-1,-1,-1,-1,-1,-1,-1,-1,-1,-1,-1,-1],"split_conditions":[-2.9956025E-1,-3.8556364E-1,-4.7725242E-1,-3.8980678E-1,-3.8980678E-1,-6.719152E-1,-1.51151E0,6.050298E-1,2.7698034E-1,-5.3848994E-1,9.689973E-1,-7.2958255E-1,1.5737013E0,-1.5350235E0,2.0241037E-1,-7.777032E-2,3.589339E-1,1.3563192E-1,-1.420525E0,-3.6230665E-1,-5.863639E-1,-1.489044E-1,1.2703053E0,7.758387E-1,-4.799852E-1,-6.335042E-1,-2.472189E-1,1.2745049E0,-1.2504317E-2,-4.8081693E-1,4.0738203E-2,-3.147871E-2,-1.7448734E-2,-1.582836E-2,3.4385293E-3,-1.1681382E-2,1.2681233E-2,3.9498964E-3,2.6273765E-2,-2.1476943E-2,-4.5505296E-3,-5.4932516E-3,1.3183894E-2,2.2530116E-2,3.405358E-2,6.2727868E-3,3.531382E-2,1.2565295E-2,3.2811675E-2,-2.684732E-2,-2.1848E-5,2.4240078E-2,3.5647146E-2,-2.434252E-2,1.5710153E-2,3.2879263E-2,-5.9904754E-3,2.7032638E-2,3.8159225E-2],"split_indices":[6,7,7,4,4,1,1,8,1,8,0,1,2,1,8,3,1,3,7,3,1,3,7,3,2,8,8,0,0,5,0,0,0,0,0,0,0,0,0,0,0,0,0,0,0,0,0,0,0,0,0,0,0,0,0,0,0,0,0],"split_type":[0,0,0,0,0,0,0,0,0,0,0,0,0,0,0,0,0,0,0,0,0,0,0,0,0,0,0,0,0,0,0,0,0,0,0,0,0,0,0,0,0,0,0,0,0,0,0,0,0,0,0,0,0,0,0,0,0,0,0],"sum_hessian":[4.6840127E3,4.3335435E3,3.504692E2,1.6583682E3,2.6751753E3,1.2883728E2,2.2163191E2,1.3944175E3,2.6395068E2,2.2999895E3,3.7518576E2,4.0580524E1,8.825676E1,1.4658972E1,2.0697293E2,9.217766E2,4.7264093E2,1.5473293E2,1.0921777E2,7.7942566E2,1.5205637E3,2.971806E2,7.8005165E1,3.8199566E1,2.3809552E0,8.535213E1,2.9046338E0,1.3318625E1,1.3403472E0,1.1171724E2,9.52557E1,4.335847E2,4.881919E2,2.8304956E2,1.8959138E2,7.840179E1,7.633114E1,2.049676E1,8.872101E1,2.920842E2,4.8734146E2,4.9235135E2,1.0282124E3,1.3595334E2,1.6122726E2,6.1336704E1,1.6668457E1,2.8067162E1,1.0132406E1,1.189977E0,1.1909782E0,2.93358E1,5.6016327E1,1.3514991E0,1.5531347E0,1.1719982E1,1.5986426E0,3.9133343E1,7.258389E1],"tree_param":{"num_deleted":"0","num_feature":"9","num_nodes":"59","size_leaf_vector":"1"}},{"base_weights":[8.168831E-3,-8.0152564E-2,1.0846423E0,-4.7357342E-1,1.466213E-1,7.3978895E-1,1.202333E0,-6.1837816E-1,2.8992662E-1,3.5368655E-2,8.339703E-1,5.5428237E-1,1.0864402E0,4.677361E-3,1.2102623E0,-7.707617E-1,-1.9451639E-1,-1.770502E-1,5.341119E-1,-2.3050852E-1,3.2823658E-1,6.6228676E-1,1.1223323E0,4.0971625E-1,1.258273E0,1.1470801E0,-6.4593926E-3,1.0841826E0,3.8473163E-2,-2.858579E-2,-1.4448867E-2,1.7510137E-3,-1.9647243E-2,-1.4678793E-2,1.4833679E-2,6.8047037E-3,2.6989054E-2,-1.4300486E-2,2.5856425E-3,1.1782878E-3,1.8876879E-2,1.0944534E-2,2.6608516E-2,1.5179282E-2,3.52481E-2,4.086249E-3,2.472301E-2,3.9816577E-2,1.1643641E-2,-1.396513E-3,3.5913315E-2,1.9604208E-2,3.48065E-2],"categories":[],"categories_nodes":[],"categories_segments":[],"categories_sizes":[],"default_left":[0,0,0,0,0,0,0,0,0,0,0,0,0,0,0,0,0,0,0,0,0,0,0,0,0,0,0,0,0,0,0,0,0,0,0,0,0,0,0,0,0,0,0,0,0,0,0,0,0,0,0,0,0],"id":22,"left_children":[1,3,5,7,9,11,13,15,17,19,21,23,25,-1,27,29,31,33,35,37,39,41,43,45,47,49,-1,51,-1,-1,-1,-1,-1,-1,-1,-1,-1,-1,-1,-1,-1,-1,-1,-1,-1,-1,-1,-1,-1,-1,-1,-1,-1],"loss_changes":[4.453934E2,3.863362E2,1.3527252E1,1.7522787E2,2.1004567E2,5.377041E0,1.9954224E0,8.583273E1,2.8954983E1,1.8427107E2,1.8201233E1,5.8564816E0,2.7233467E0,0E0,9.8565674E-1,5.107794E1,4.117916E1,1.8620787E1,1.849096E1,9.675209E1,9.791224E1,1.5869301E1,3.9890137E0,5.9429283E0,9.584236E-2,1.8551788E0,0E0,2.566658E0,0E0,0E0,0E0,0E0,0E0,0E0,0E0,0E0,0E0,0E0,0E0,0E0,0E0,0E0,0E0,0E0,0E0,0E0,0E0,0E0,0E0,0E0,0E0,0E0,0E0],"parents":[2147483647,0,0,1,1,2,2,3,3,4,4,5,5,6,6,7,7,8,8,9,9,10,10,11,11,12,12,14,14,15,15,16,16,17,17,18,18,19,19,20,20,21,21,22,22,23,23,24,24,25,25,27,27],"right_children":[2,4,6,8,10,12,14,16,18,20,22,24,26,-1,28,30,32,34,36,38,40,42,44,46,48,50,-1,52,-1,-1,-1,-1,-1,-1,-1,-1,-1,-1,-1,-1,-1,-1,-1,-1,-1,-1,-1,-1,-1,-1,-1,-1,-1],"split_conditions":[-2.9956025E-1,-4.3888718E-1,-8.919987E-1,-3.8980678E-1,-3.8980678E-1,4.6885344E-1,-1.7172214E0,8.726859E-1,-5.602939E-1,1.0420043E-1,3.9848316E-1,-3.8980678E-1,1.6411141E0,4.677361E-3,1.6699287E-1,3.8957906E-1,5.412866E-1,7.758387E-1,6.3171186E-2,2.6772162E-1,1.0187537E-1,-2.472189E-1,-1.4462922E0,2.953963E-1,9.8598564E-1,-1.5255047E0,-6.4593926E-3,-1.2020644E0,3.8473163E-2,-2.858579E-2,-1.4448867E-2,1.7510137E-3,-1.9647243E-2,-1.4678793E-2,1.4833679E-2,6.8047037E-3,2.6989054E-2,-1.4300486E-2,2.5856425E-3,1.1782878E-3,1.8876879E-2,1.0944534E-2,2.6608516E-2,1.5179282E-2,3.52481E-2,4.086249E-3,2.472301E-2,3.9816577E-2,1.1643641E-2,-1.396513E-3,3.5913315E-2,1.9604208E-2,3.48065E-2],"split_indices":[6,7,7,4,4,3,8,8,1,1,1,4,0,0,7,3,0,3,8,3,8,8,8,8,2,5,0,8,0,0,0,0,0,0,0,0,0,0,0,0,0,0,0,0,0,0,0,0,0,0,0,0,0],"split_type":[0,0,0,0,0,0,0,0,0,0,0,0,0,0,0,0,0,0,0,0,0,0,0,0,0,0,0,0,0,0,0,0,0,0,0,0,0,0,0,0,0,0,0,0,0,0,0,0,0,0,0,0,0],"sum_hessian":[4.682707E3,4.3284927E3,3.542142E2,1.5823131E3,2.7461797E3,9.1980896E1,2.622333E2,1.3302157E3,2.5209744E2,2.364516E3,3.8166342E2,6.1609966E1,3.037093E1,2.127536E0,2.6010577E2,9.778486E2,3.5236713E2,8.665482E1,1.6544261E2,1.2394799E3,1.1250363E3,2.412976E2,1.4036581E2,5.242613E1,9.183837E0,2.9132654E1,1.2382749E0,1.0052587E2,1.5957991E2,5.985694E2,3.7927914E2,2.2800305E2,1.24364075E2,5.933572E1,2.73191E1,9.0761604E1,7.4681015E1,6.971031E2,5.423768E2,5.745678E2,5.504685E2,1.04954765E2,1.3634283E2,1.1872796E1,1.2849301E2,3.238175E1,2.004438E1,8.022874E0,1.1609634E0,1.1747566E0,2.79579E1,1.6522957E1,8.4002914E1],"tree_param":{"num_deleted":"0","num_feature":"9","num_nodes":"53","size_leaf_vector":"1"}},{"base_weights":[3.835841E-3,-8.082683E-2,1.0727965E0,-1.9791177E-1,6.020047E-1,7.647983E-1,1.1798774E0,-5.443189E-1,5.1948827E-2,2.9262346E-1,8.3583486E-1,5.7464004E-1,1.1057923E0,8.208944E-1,1.2106452E0,-7.893619E-1,-2.5490195E-1,-1.6819592E-1,4.2978284E-1,-4.37713E-2,6.188102E-1,6.811208E-1,1.1204344E0,6.91856E-1,-1.6042559E-1,2.523901E-3,1.1684041E0,9.9322927E-1,-1.9699307E-2,1.0349302E0,1.2814184E0,-2.7743177E-2,-1.2621633E-2,-1.4833222E-2,2.3955693E-3,-1.754458E-2,7.093317E-4,2.3768052E-2,7.216162E-3,-1.5058219E-2,7.358777E-3,5.256536E-3,2.7348453E-2,1.1811965E-2,2.7721977E-2,3.680592E-2,2.4661941E-2,8.170948E-3,2.6234837E-2,-2.4170347E-2,1.893805E-2,3.7517074E-2,6.8689026E-3,1.4681699E-2,3.703519E-2,9.217584E-3,3.282129E-2,1.0481272E-2,3.8597275E-2],"categories":[],"categories_nodes":[],"categories_segments":[],"categories_sizes":[],"default_left":[0,0,0,0,0,0,0,0,0,0,0,0,0,0,0,0,0,0,0,0,0,0,0,0,0,0,0,0,0,0,0,0,0,0,0,0,0,0,0,0,0,0,0,0,0,0,0,0,0,0,0,0,0,0,0,0,0,0,0],"id":23,"left_children":[1,3,5,7,9,11,13,15,17,19,21,23,25,27,29,31,33,35,37,39,41,43,45,47,49,-1,51,53,-1,55,57,-1,-1,-1,-1,-1,-1,-1,-1,-1,-1,-1,-1,-1,-1,-1,-1,-1,-1,-1,-1,-1,-1,-1,-1,-1,-1,-1,-1],"loss_changes":[4.2097986E2,3.447263E2,1.0356506E1,3.1855945E2,4.541487E1,5.259445E0,1.7836609E0,1.0917297E2,1.7798526E2,3.0007387E1,1.5041107E1,5.319044E0,1.9144592E0,6.497919E0,1.5279541E0,4.127539E1,5.6857178E1,1.0808953E2,5.3846146E1,1.8061056E1,1.7866283E1,1.604905E1,2.9562378E0,3.7703552E0,5.1700025E0,0E0,1.9961853E0,1.9435539E0,0E0,2.7220993E0,3.1680298E-1,0E0,0E0,0E0,0E0,0E0,0E0,0E0,0E0,0E0,0E0,0E0,0E0,0E0,0E0,0E0,0E0,0E0,0E0,0E0,0E0,0E0,0E0,0E0,0E0,0E0,0E0,0E0,0E0],"parents":[2147483647,0,0,1,1,2,2,3,3,4,4,5,5,6,6,7,7,8,8,9,9,10,10,11,11,12,12,13,13,14,14,15,15,16,16,17,17,18,18,19,19,20,20,21,21,22,22,23,23,24,24,26,26,27,27,29,29,30,30],"right_children":[2,4,6,8,10,12,14,16,18,20,22,24,26,28,30,32,34,36,38,40,42,44,46,48,50,-1,52,54,-1,56,58,-1,-1,-1,-1,-1,-1,-1,-1,-1,-1,-1,-1,-1,-1,-1,-1,-1,-1,-1,-1,-1,-1,-1,-1,-1,-1,-1,-1],"split_conditions":[-2.9956025E-1,-3.8980678E-1,-8.919987E-1,-2.4332136E-1,-3.3272484E-1,4.6885344E-1,-1.4075879E0,2.0241037E-1,4.8891723E-1,-9.164556E-2,4.526361E-1,1.1523019E0,-1.5255047E0,1.518911E0,-5.863639E-1,8.1237614E-1,3.15109E-1,-6.3228494E-1,-4.9743932E-1,-2.9117256E-1,-3.7188306E-1,-1.489044E-1,6.6348964E-1,-6.719152E-1,4.169391E-2,2.523901E-3,1.484244E0,-1.1562188E-1,-1.9699307E-2,-1.4750638E0,-1.3688837E0,-2.7743177E-2,-1.2621633E-2,-1.4833222E-2,2.3955693E-3,-1.754458E-2,7.093317E-4,2.3768052E-2,7.216162E-3,-1.5058219E-2,7.358777E-3,5.256536E-3,2.7348453E-2,1.1811965E-2,2.7721977E-2,3.680592E-2,2.4661941E-2,8.170948E-3,2.6234837E-2,-2.4170347E-2,1.893805E-2,3.7517074E-2,6.8689026E-3,1.4681699E-2,3.703519E-2,9.217584E-3,3.282129E-2,1.0481272E-2,3.8597275E-2],"split_indices":[6,4,7,7,7,3,8,8,8,8,1,0,5,0,1,1,1,1,0,3,1,3,0,1,2,0,1,7,0,0,8,0,0,0,0,0,0,0,0,0,0,0,0,0,0,0,0,0,0,0,0,0,0,0,0,0,0,0,0],"split_type":[0,0,0,0,0,0,0,0,0,0,0,0,0,0,0,0,0,0,0,0,0,0,0,0,0,0,0,0,0,0,0,0,0,0,0,0,0,0,0,0,0,0,0,0,0,0,0,0,0,0,0,0,0,0,0,0,0,0,0],"sum_hessian":[4.6496987E3,4.309321E3,3.403778E2,3.6791655E3,6.301554E2,8.9910255E1,2.5046754E2,1.5412272E3,2.1379382E3,2.722251E2,3.579303E2,5.9445274E1,3.0464983E1,2.1957594E1,2.2850995E2,8.3365894E2,7.0756824E2,1.3512109E3,7.8672736E2,1.3444176E2,1.3778333E2,2.3407544E2,1.23854866E2,5.1320343E1,8.124929E0,1.8945489E0,2.8570435E1,1.9957592E1,2.0000029E0,7.009703E1,1.5841293E2,6.0859766E2,2.2506126E2,4.1216205E2,2.954062E2,4.2537247E2,9.258385E2,2.6875568E2,5.179717E2,5.1723316E1,8.271845E1,5.5420715E1,8.23626E1,1.08430145E2,1.256453E2,8.899727E1,3.4857597E1,1.6322195E1,3.499815E1,4.4667444E0,3.6581852E0,2.596804E1,2.6023946E0,7.4431005E0,1.2514491E1,5.732146E0,6.436488E1,1.250029E0,1.571629E2],"tree_param":{"num_deleted":"0","num_feature":"9","num_nodes":"59","size_leaf_vector":"1"}},{"base_weights":[2.739634E-3,-8.147849E-2,1.0564032E0,-2.80594E-1,3.1212515E-1,8.201297E-1,1.1908748E0,-4.0555367E-1,4.256961E-1,5.156981E-2,5.674207E-1,5.318697E-1,9.810508E-1,1.0326071E0,1.2539337E0,-7.1190995E-1,-1.7449754E-1,1.2325253E-1,7.1182853E-1,-6.7370735E-2,7.6510173E-1,2.2057122E-1,7.721297E-1,7.677648E-1,-1.2764423E-1,-4.3809717E-3,9.98649E-1,1.0551993E0,-3.6268495E-4,6.9588304E-1,3.8034413E-2,-2.7982453E-2,-1.3641501E-2,-1.07597E-2,7.3931497E-3,-7.1598473E-3,1.5165972E-2,9.760129E-3,2.980015E-2,-1.634159E-2,3.6938644E-3,1.6392663E-2,3.3763994E-2,-7.1155857E-3,1.626328E-2,3.1041175E-2,1.8779844E-2,1.1219372E-2,3.0686E-2,-1.1348945E-2,2.9363092E-2,2.109217E-2,3.3662923E-2,2.3003902E-2,3.4589745E-2,-4.517796E-3,2.7715253E-2],"categories":[],"categories_nodes":[],"categories_segments":[],"categories_sizes":[],"default_left":[0,0,0,0,0,0,0,0,0,0,0,0,0,0,0,0,0,0,0,0,0,0,0,0,0,0,0,0,0,0,0,0,0,0,0,0,0,0,0,0,0,0,0,0,0,0,0,0,0,0,0,0,0,0,0,0,0],"id":24,"left_children":[1,3,5,7,9,11,13,15,17,19,21,23,25,27,29,31,33,35,37,39,41,43,45,47,49,-1,51,53,-1,55,-1,-1,-1,-1,-1,-1,-1,-1,-1,-1,-1,-1,-1,-1,-1,-1,-1,-1,-1,-1,-1,-1,-1,-1,-1,-1,-1],"loss_changes":[4.1183218E2,3.3689746E2,9.93692E0,2.5209341E2,9.6035126E1,5.406479E0,8.6782837E-1,1.7158685E2,3.7087547E1,6.0801983E1,5.1615814E1,7.560837E0,1.7490921E0,1.6036453E0,2.818756E-1,5.8795166E1,1.0738806E2,2.9181084E1,2.3670975E1,5.5943615E1,7.4510574E0,4.0177326E1,1.6936188E1,3.1810455E0,4.1127577E0,0E0,2.1197968E0,9.770279E-1,0E0,1.2706711E0,0E0,0E0,0E0,0E0,0E0,0E0,0E0,0E0,0E0,0E0,0E0,0E0,0E0,0E0,0E0,0E0,0E0,0E0,0E0,0E0,0E0,0E0,0E0,0E0,0E0,0E0,0E0],"parents":[2147483647,0,0,1,1,2,2,3,3,4,4,5,5,6,6,7,7,8,8,9,9,10,10,11,11,12,12,13,13,14,14,15,15,16,16,17,17,18,18,19,19,20,20,21,21,22,22,23,23,24,24,26,26,27,27,29,29],"right_children":[2,4,6,8,10,12,14,16,18,20,22,24,26,28,30,32,34,36,38,40,42,44,46,48,50,-1,52,54,-1,56,-1,-1,-1,-1,-1,-1,-1,-1,-1,-1,-1,-1,-1,-1,-1,-1,-1,-1,-1,-1,-1,-1,-1,-1,-1,-1,-1],"split_conditions":[-2.9956025E-1,5.72598E-1,-4.7725242E-1,-3.8980678E-1,-4.0262908E-2,-4.9025562E-1,-5.863639E-1,-1.6905394E-1,-8.60613E-2,-3.8980678E-1,-4.3344074E-1,9.386557E-1,-1.7224609E0,-6.179242E-1,-1.6398131E0,1.8562879E-1,7.1994185E-1,1.3563192E-1,-3.238707E-1,-7.1797705E-1,4.5021304E-1,-3.044307E-1,-4.9743932E-1,-1.2020644E0,-3.8980678E-1,-4.3809717E-3,-7.012937E-1,1.8167415E-1,-3.6268495E-4,-7.9941046E-1,3.8034413E-2,-2.7982453E-2,-1.3641501E-2,-1.07597E-2,7.3931497E-3,-7.1598473E-3,1.5165972E-2,9.760129E-3,2.980015E-2,-1.634159E-2,3.6938644E-3,1.6392663E-2,3.3763994E-2,-7.1155857E-3,1.626328E-2,3.1041175E-2,1.8779844E-2,1.1219372E-2,3.0686E-2,-1.1348945E-2,2.9363092E-2,2.109217E-2,3.3662923E-2,2.3003902E-2,3.4589745E-2,-4.517796E-3,2.7715253E-2],"split_indices":[6,7,7,4,1,8,1,8,1,4,3,0,7,1,8,1,1,3,8,3,8,8,0,8,4,0,1,7,0,5,0,0,0,0,0,0,0,0,0,0,0,0,0,0,0,0,0,0,0,0,0,0,0,0,0,0,0],"split_type":[0,0,0,0,0,0,0,0,0,0,0,0,0,0,0,0,0,0,0,0,0,0,0,0,0,0,0,0,0,0,0,0,0,0,0,0,0,0,0,0,0,0,0,0,0,0,0,0,0,0,0,0,0,0,0,0,0],"sum_hessian":[4.639043E3,4.2965474E3,3.4249545E2,2.8533745E3,1.4431729E3,1.2680009E2,2.1569536E2,2.4247957E3,4.2857877E2,7.148237E2,7.2834906E2,4.6969036E1,7.9831055E1,6.640497E1,1.492904E2,1.0416266E3,1.3831692E3,2.0904636E2,2.1953241E2,6.1346857E2,1.0135514E2,2.7109525E2,4.572538E2,3.447417E1,1.24948635E1,1.1151118E0,7.871594E1,6.498948E1,1.4154885E0,4.8641024E0,1.444263E2,5.590084E2,4.8261813E2,9.623081E2,4.208611E2,1.0757655E2,1.014698E2,9.342411E1,1.261083E2,1.7445766E2,4.3901096E2,6.464376E1,3.671138E1,1.11962425E2,1.5913283E2,1.6131732E2,2.959365E2,1.4522559E1,1.9951612E1,1.0723566E1,1.7712975E0,2.5162891E1,5.355305E1,1.8695375E1,4.62941E1,1.1040035E0,3.7600987E0],"tree_param":{"num_deleted":"0","num_feature":"9","num_nodes":"57","size_leaf_vector":"1"}},{"base_weights":[-4.00893E-3,-8.305554E-2,1.0181776E0,-2.8072354E-1,3.0400747E-1,7.0713776E-1,1.1278263E0,-4.0044436E-1,3.908761E-1,-1.0661254E-2,5.390875E-1,3.3502823E-1,8.780683E-1,8.1970316E-1,1.176255E0,-8.160473E-1,-2.431279E-1,-1.2354108E-2,6.197378E-1,-1.3512953E-1,7.424198E-1,2.0505293E-1,7.3441774E-1,-2.58055E-1,6.3566196E-1,-7.6761946E-2,9.2837787E-1,3.063722E-1,1.0971661E0,1.0343882E0,3.8255345E-2,-1.8559905E-2,-3.1037625E-2,-1.4178899E-2,2.3736309E-3,-2.0278405E-2,6.945883E-3,5.9200064E-3,2.4552193E-2,-1.7741052E-2,1.5645917E-3,1.5108839E-2,3.3734802E-2,1.341521E-2,-8.607173E-3,1.9738395E-2,3.6144637E-2,-2.2585155E-2,1.515433E-2,2.0257952E-5,2.751774E-2,-2.1197908E-2,2.416889E-2,3.0360686E-2,8.84914E-3,2.733306E-2,-6.672598E-3,5.301021E-3,3.6036756E-2,2.6259026E-2,3.7699305E-2],"categories":[],"categories_nodes":[],"categories_segments":[],"categories_sizes":[],"default_left":[0,0,0,0,0,0,0,0,0,0,0,0,0,0,0,0,0,0,0,0,0,0,0,0,0,0,0,0,0,0,0,0,0,0,0,0,0,0,0,0,0,0,0,0,0,0,0,0,0,0,0,0,0,0,0,0,0,0,0,0,0],"id":25,"left_children":[1,3,5,7,9,11,13,15,17,19,21,23,25,27,29,31,33,35,37,39,41,43,45,47,49,51,53,55,57,59,-1,-1,-1,-1,-1,-1,-1,-1,-1,-1,-1,-1,-1,-1,-1,-1,-1,-1,-1,-1,-1,-1,-1,-1,-1,-1,-1,-1,-1,-1,-1],"loss_changes":[3.7252502E2,3.2750613E2,1.0489136E1,2.2796689E2,1.0705455E2,5.362644E0,2.6618652E0,1.570527E2,3.9612587E1,5.819709E1,5.389656E1,5.44375E0,2.9691277E0,4.8347282E0,1.5957642E0,2.7829773E1,1.2917667E2,2.5462982E1,2.2815018E1,4.555079E1,7.468296E0,3.6700752E1,1.7995941E1,4.4102626E0,3.564704E0,2.7606575E0,2.7416878E0,4.7196393E0,2.0079021E0,2.104309E0,0E0,0E0,0E0,0E0,0E0,0E0,0E0,0E0,0E0,0E0,0E0,0E0,0E0,0E0,0E0,0E0,0E0,0E0,0E0,0E0,0E0,0E0,0E0,0E0,0E0,0E0,0E0,0E0,0E0,0E0,0E0],"parents":[2147483647,0,0,1,1,2,2,3,3,4,4,5,5,6,6,7,7,8,8,9,9,10,10,11,11,12,12,13,13,14,14,15,15,16,16,17,17,18,18,19,19,20,20,21,21,22,22,23,23,24,24,25,25,26,26,27,27,28,28,29,29],"right_children":[2,4,6,8,10,12,14,16,18,20,22,24,26,28,30,32,34,36,38,40,42,44,46,48,50,52,54,56,58,60,-1,-1,-1,-1,-1,-1,-1,-1,-1,-1,-1,-1,-1,-1,-1,-1,-1,-1,-1,-1,-1,-1,-1,-1,-1,-1,-1,-1,-1,-1,-1],"split_conditions":[-2.9956025E-1,5.72598E-1,-8.919987E-1,-3.8980678E-1,-2.588435E-1,-6.719152E-1,-1.214067E0,-7.109126E-1,-5.1511556E-1,-3.8980678E-1,-4.3344074E-1,-4.9025562E-1,-1.5255047E0,1.3756105E-1,-1.5278652E-1,1.1357592E-1,3.15109E-1,-6.5408605E-1,-6.7220837E-1,-7.4961674E-1,1.2703053E0,6.6348964E-1,-3.8980678E-1,1.5722278E-1,-9.446293E-1,2.953963E-1,1.4011961E0,1.1357592E-1,-1.4539294E0,5.663256E-1,3.8255345E-2,-1.8559905E-2,-3.1037625E-2,-1.4178899E-2,2.3736309E-3,-2.0278405E-2,6.945883E-3,5.9200064E-3,2.4552193E-2,-1.7741052E-2,1.5645917E-3,1.5108839E-2,3.3734802E-2,1.341521E-2,-8.607173E-3,1.9738395E-2,3.6144637E-2,-2.2585155E-2,1.515433E-2,2.0257952E-5,2.751774E-2,-2.1197908E-2,2.416889E-2,3.0360686E-2,8.84914E-3,2.733306E-2,-6.672598E-3,5.301021E-3,3.6036756E-2,2.6259026E-2,3.7699305E-2],"split_indices":[6,7,7,4,1,1,8,8,1,4,3,8,5,7,1,0,1,3,8,8,7,0,4,2,5,8,1,0,5,8,0,0,0,0,0,0,0,0,0,0,0,0,0,0,0,0,0,0,0,0,0,0,0,0,0,0,0,0,0,0,0],"split_type":[0,0,0,0,0,0,0,0,0,0,0,0,0,0,0,0,0,0,0,0,0,0,0,0,0,0,0,0,0,0,0,0,0,0,0,0,0,0,0,0,0,0,0,0,0,0,0,0,0,0,0,0,0,0,0,0,0,0,0,0,0],"sum_hessian":[4.60839E3,4.278452E3,3.299378E2,2.8323054E3,1.4461466E3,8.793691E1,2.420009E2,2.4041418E3,4.2816376E2,6.1880005E2,8.2734656E2,2.8611273E1,5.9325645E1,3.530457E1,2.0669633E2,6.589973E2,1.7451444E3,1.5536789E2,2.7279587E2,5.3173596E2,8.706408E1,3.060389E2,5.213077E2,9.672069E0,1.8939203E1,2.943065E0,5.638258E1,1.3125471E1,2.2179098E1,8.9623184E1,1.1707315E2,3.482718E2,3.1072556E2,1.01897504E3,7.261694E2,4.127888E1,1.1408901E2,8.78995E1,1.848964E2,1.5412196E2,3.7761398E2,5.500483E1,3.205925E1,2.051594E2,1.00879524E2,4.5047482E2,7.083282E1,5.8761353E0,3.7959332E0,6.126535E0,1.2812669E1,1.8335418E0,1.1095232E0,4.927746E1,7.105122E0,5.7858033E0,7.3396673E0,2.5267317E0,1.9652367E1,5.5112617E1,3.4510567E1],"tree_param":{"num_deleted":"0","num_feature":"9","num_nodes":"61","size_leaf_vector":"1"}},{"base_weights":[-1.4029364E-3,-7.6967806E-2,9.867043E-1,-4.3938115E-1,1.310594E-1,6.507235E-1,1.1120951E0,-5.6700796E-1,2.2856957E-1,-2.2750074E-1,3.16135E-1,2.798675E-1,8.506475E-1,9.613435E-1,1.214496E0,-7.103083E-1,-1.7485255E-1,-1.4082797E-1,5.62828E-1,-3.5134497E-1,5.186699E-1,-3.71782E-2,4.818026E-1,-3.1801125E-1,4.8246524E-1,8.8778824E-1,-7.167832E-3,6.9609785E-1,1.1103464E0,1.1175956E-2,1.2202525E0,-2.675565E-2,-1.2633914E-2,1.7354888E-3,-1.9515967E-2,-2.0770067E-2,3.6226748E-3,-3.554937E-3,2.2382226E-2,-2.0604204E-2,-4.331275E-3,4.0456643E-3,2.4229564E-2,-4.9228906E-3,2.096828E-2,7.149725E-3,2.0515436E-2,8.519345E-3,-3.362901E-2,6.468169E-3,2.6974577E-2,2.9419469E-2,8.503599E-3,3.038731E-2,9.199171E-3,1.7763704E-2,3.500967E-2,1.8716184E-2,3.69292E-2],"categories":[],"categories_nodes":[],"categories_segments":[],"categories_sizes":[],"default_left":[0,0,0,0,0,0,0,0,0,0,0,0,0,0,0,0,0,0,0,0,0,0,0,0,0,0,0,0,0,0,0,0,0,0,0,0,0,0,0,0,0,0,0,0,0,0,0,0,0,0,0,0,0,0,0,0,0,0,0],"id":26,"left_children":[1,3,5,7,9,11,13,15,17,19,21,23,25,27,29,31,33,35,37,39,41,43,45,47,49,51,-1,53,55,-1,57,-1,-1,-1,-1,-1,-1,-1,-1,-1,-1,-1,-1,-1,-1,-1,-1,-1,-1,-1,-1,-1,-1,-1,-1,-1,-1,-1,-1],"loss_changes":[3.4368304E2,3.2242636E2,1.305246E1,1.3307977E2,1.8039725E2,6.529831E0,2.4866943E0,7.34736E1,3.1058714E1,8.57231E1,1.049476E2,4.2067723E0,2.5923653E0,3.201065E0,2.102356E-1,4.99628E1,3.8981476E1,1.7393185E1,1.6557896E1,5.5063576E1,1.4550953E1,5.366527E1,5.9877502E1,4.703521E0,2.6295362E0,2.9259644E0,0E0,4.4826508E0,1.1495361E0,0E0,1.0028076E-1,0E0,0E0,0E0,0E0,0E0,0E0,0E0,0E0,0E0,0E0,0E0,0E0,0E0,0E0,0E0,0E0,0E0,0E0,0E0,0E0,0E0,0E0,0E0,0E0,0E0,0E0,0E0,0E0],"parents":[2147483647,0,0,1,1,2,2,3,3,4,4,5,5,6,6,7,7,8,8,9,9,10,10,11,11,12,12,13,13,14,14,15,15,16,16,17,17,18,18,19,19,20,20,21,21,22,22,23,23,24,24,25,25,27,27,28,28,30,30],"right_children":[2,4,6,8,10,12,14,16,18,20,22,24,26,28,30,32,34,36,38,40,42,44,46,48,50,52,-1,54,56,-1,58,-1,-1,-1,-1,-1,-1,-1,-1,-1,-1,-1,-1,-1,-1,-1,-1,-1,-1,-1,-1,-1,-1,-1,-1,-1,-1,-1,-1],"split_conditions":[-2.9956025E-1,-4.3888718E-1,-8.3361983E-1,-3.8980678E-1,-5.3848994E-1,-5.1511556E-1,-2.472189E-1,8.726859E-1,-6.6362405E-3,-3.8980678E-1,-6.010624E-1,-7.4961674E-1,1.6411141E0,1.8167415E-1,-1.7213532E0,3.8957906E-1,5.9563357E-1,-6.719152E-1,-9.8184186E-1,-3.6230665E-1,-2.588435E-1,-3.8980678E-1,-1.489044E-1,-1.2628397E0,3.8957906E-1,1.4011961E0,-7.167832E-3,1.1357592E-1,-1.2453914E0,1.1175956E-2,-1.6559165E0,-2.675565E-2,-1.2633914E-2,1.7354888E-3,-1.9515967E-2,-2.0770067E-2,3.6226748E-3,-3.554937E-3,2.2382226E-2,-2.0604204E-2,-4.331275E-3,4.0456643E-3,2.4229564E-2,-4.9228906E-3,2.096828E-2,7.149725E-3,2.0515436E-2,8.519345E-3,-3.362901E-2,6.468169E-3,2.6974577E-2,2.9419469E-2,8.503599E-3,3.038731E-2,9.199171E-3,1.7763704E-2,3.500967E-2,1.8716184E-2,3.69292E-2],"split_indices":[6,7,7,4,8,1,8,8,3,4,1,8,0,7,2,3,0,1,8,3,1,4,3,7,3,1,0,0,5,0,1,0,0,0,0,0,0,0,0,0,0,0,0,0,0,0,0,0,0,0,0,0,0,0,0,0,0,0,0],"split_type":[0,0,0,0,0,0,0,0,0,0,0,0,0,0,0,0,0,0,0,0,0,0,0,0,0,0,0,0,0,0,0,0,0,0,0,0,0,0,0,0,0,0,0,0,0,0,0,0,0,0,0,0,0,0,0,0,0,0,0],"sum_hessian":[4.6009097E3,4.2749106E3,3.25999E2,1.558561E3,2.7163499E3,9.028166E1,2.3571732E2,1.308663E3,2.4989807E2,9.246773E2,1.7916725E3,3.2463055E1,5.7818607E1,9.955027E1,1.3616705E2,9.5784033E2,3.5082266E2,1.1898423E2,1.3091383E2,7.935058E2,1.3117148E2,5.721803E2,1.2194922E3,8.072103E0,2.4390951E1,5.6091785E1,1.7268232E0,3.7847767E1,6.17025E1,1.3708999E0,1.3479616E2,5.87145E2,3.7069534E2,2.3616788E2,1.1465478E2,3.7749256E1,8.123498E1,2.7822102E1,1.03091736E2,3.0188425E2,4.9162155E2,5.6971245E1,7.420023E1,4.8869852E2,8.348179E1,5.5402893E2,6.6546326E2,4.98277E0,3.0893323E0,1.5793638E1,8.597312E0,